-1.072806547924471277e+00 1.531484083766423143e-01 -3.343899570864839466e-01 -5.411710707897573469e-01 -2.781443441585588344e-02 -2.686814441220104488e-01 -6.419599238562443411e-01 -2.537235455652588345e-01 -2.766565442034396027e-01 -1.003650532231170622e+00 2.091553243710323612e-02 -8.093400080604091773e-01 3.399160671519552701e-01 7.027966288379099424e-01 9.850550105565719639e-02 8.420921943967508982e-02 -2.603235361125341152e-01 2.988687417989849271e-01 2.589657523461619815e-01 -8.234883607291221264e-01 -6.147776054402884771e-01 6.405506923344602699e-01 -3.416536798103652073e-01 1.079911613951549665e-01 -7.183132400188225741e-01 -4.977238868054649212e-01 2.216106574043811561e-01 -1.146608492251636857e+00 -1.652027703485405008e-01 -3.824260062899401680e-01 -1.496729073656986875e-01 1.696155586466078780e-01 -1.605064000307326322e-01 -1.235380536516359450e-02 1.557386621945649335e-02 1.596651048678671830e-02 -4.502213250503245834e-01 2.036459675882346776e+00 -6.629079375947468655e-01 -9.621684505172742874e-01 3.030882615691868898e-01 9.793597427318539994e-01 -5.206422476337631000e-01 -3.071072434727321609e-01 -5.497980180248470683e-01 -1.422955969195059123e-01 2.659582798201716725e-01 -8.921976520564538216e-02 -6.646426504063567275e-01 -5.453299728233985677e-01 8.592825621366930733e-01 1.703322575174805453e-01 -4.500799464393253485e-02 -4.126537417893564874e-01 -4.279567506833534263e-01 -9.979968120128440701e-02 2.777997458242878470e-01 -9.624645331972757345e-02 -9.396400343947640399e-03 -3.554126626860724114e-01 1.211558167104636735e-01 4.337582348081876482e-01 -6.021506523248537635e-01 -5.922069367507664106e-01 -7.310604304163027534e-01 -1.067658947270783837e-01 1.660044854194667296e+00 -1.530367989214857505e-01 1.108381206916169738e-02 3.409646021575416519e-01 2.082440189337921299e-01 -3.959705148503006589e-02 1.076256698215301011e-01 -1.113209765385202998e-01 7.616705308115334638e-01 2.065326720097855340e-01 1.298012601135286048e-01 -2.000588404840032419e-01 -1.832975655422946215e-01 -1.219977812718421872e-01 -5.011211006172882065e-01 -1.821027228195107317e-02 -2.307773810788914803e-01 -1.371274041742430061e+00 -8.459995915292023438e-01 -4.284865517479491404e-01 -4.840499915699207623e-02 1.685814256501802222e-01 2.668131312861231064e-01 -7.646283757952047899e-02 -1.320684625146170688e-01 -6.614469998848768739e-01 -9.857265757913213911e-01 -1.039845536254544900e+00 1.195707723038064857e-02 -5.033362847279137381e-02 -5.219156717213241370e-01 -1.391269474177113386e-02 -1.325910313823249198e-01 -6.289493759218991453e-01 -5.676061850912286211e-01 -4.031700482111418293e-01 -5.158299546247548800e-03 -5.718048059663879412e-01 -2.007746662865224352e-01 -1.693635406189936410e-01 -3.528101280288777897e-01 -1.056305141908811668e-01 1.247507494692080415e-01 -8.650381069152759395e-01 3.183371505208912322e-02 2.871905203395627160e-01 -1.030969489482541357e-01 1.311562146202280399e+00 -1.838826402916399205e-01 -7.780495203437320928e-02 5.345937519088288931e-02 2.210501018168364029e-01 -6.672145823625078020e-02 -2.184876543362513912e-01 6.606532012506592944e-01 -4.323875983763692532e-01 -2.819749715057427442e-01 6.815432827775699809e-02 2.422432435745699650e-02 -4.362831599684404149e-01 3.588585785778178328e-01 -5.799933572060002041e-01 7.463526731125054436e-02 -2.512691702182903164e-01 -4.512268262265580754e-01 -9.189480950524474279e-02 -2.126072480068191273e-01 -3.185625090996722641e-01 -6.917702068754790767e-01 -2.995202282543277805e-01 -1.339333423120928068e-01 -5.674986523893703338e-02 -8.882542537505873359e-02 2.795783075019373509e-01 -4.887342169523205548e-01 5.666487991846170802e-01 -2.356160342551407716e-01 -4.243624147978060090e-01 -4.796756506276457221e-01 7.460838559354750037e-03 1.999849492586977806e-01 -1.649136319624173175e-01 4.808493063148967517e-01 -2.865561699759459624e-01 4.683984308634822321e-04 2.027950957237626417e-01 2.987774053368650318e-01 -1.556056091849132572e-01 3.905221116395924952e-01 -9.588483559596547856e-01 -6.743049598453246807e-01 5.621002679453934725e-01 -7.539135113200057595e-03 2.421895624376456668e-01 -2.579386491761334610e-01 -1.111527608712689519e+00 7.124055583271456937e-01 -5.994234045605906225e-01 3.072001596365587107e-03 -1.277408582996161779e-01 2.311204321436107975e-02 -2.243276187159726764e-01 -2.058377443137284213e-01 1.277018083160135764e-01 -3.393369839212442285e-01 5.122861770153202404e-02 4.480270681613545136e-01 -6.266464635524255922e-01 1.691929889642309337e-01 -6.047375287918340531e-02 -1.216794311981214127e-01 -3.037724081511719229e-02 -3.879780345957594689e-01 -2.788296296659442119e-01 -2.167809534145557493e-01 6.838901698666437490e-01 -4.116724617112981210e-01 -6.484638532931438770e-02 -3.753866620175548285e-01 -1.174542612780656720e-01 -5.021264310220345806e-01 1.133102365659171828e-01 1.287238324617097189e-02 3.723583963929748275e-02 -2.521952321871594460e-01 1.936892229246640063e-01 -1.728348964217024386e-01 -6.496722647071396795e-01 1.268158029761916827e+00 -1.177599671792756819e+00 -6.724481859882359969e-02 1.076454950890035900e-01 -5.942841330176835968e-02 2.359550054825896304e-01 1.006759248495010112e-01 -1.470984281279845929e+00 -7.393745048484896831e-02 2.863141623121668797e-02 3.174737324860067017e-02 2.435363623423255075e-01 -3.855419830652593860e-01 -9.656280704138859861e-01 -1.775260524438997400e-01 -2.632814736283318746e-01 -1.397316434551616471e-01 3.792306129582208030e-01 7.526987323803510099e-01 -1.118902381005533186e-01 -7.816542671770174699e-01 1.913655384807321225e-01 -2.715024854790327180e-01 8.819812418138033017e-02 1.137931784253432971e-01 -1.806833081674255603e-01 -1.730633074097252255e-01 -1.307980863666625970e-02 4.427691117984406399e-01 2.558216358897179576e-01 -6.830324117696050246e-02 1.540570208909045335e-01 9.630338585167297349e-02 2.767579007204759023e-01 -8.730637412821878884e-02 -3.170444995729052029e-01 -1.027757148830130252e+00 6.600137772580113582e-01 5.465871885606662373e-01 -2.140869177547245206e-01 -2.513120361538718345e-02 -4.918459713789957166e-01 -2.375593046385847118e-01 -1.227145389802869052e-01 -3.916457498159778838e-01 1.929570235868336425e-01 -1.461210659024507474e-01 -3.112154385917625943e-01 1.823636582830814312e+00 -1.154688212886298554e-01 -2.691793837645021781e-01 -4.888134993312894250e-01 2.507864217964588249e-01 -2.869336546642489161e-01 -1.330975244502670685e-01 8.816125643229111297e-02 -4.693405012181667280e-01 -1.222068335554791774e-01 -3.432921839808779074e-01 3.956858916896229678e-02 -9.781598431252003234e-02 -2.096836354480865680e-02 2.589574713480146673e-01 -2.501472115952075304e-01 -1.014031024677852999e+00 3.197653861919430573e-01 -7.924178980933081762e-02 -5.742565866853440726e-01 -5.543138049922138322e-01 1.731931261231861030e-01 -1.423423496776475172e+00 -3.931922660248672596e-02 -4.620076361143950483e-01 -3.888519315718628189e-01 1.556490035185666143e-01 7.219610947868779771e-01 -1.758660779781135775e+00 -4.346733062012734239e-01 -1.080899152342481989e-01 1.414077889221488846e-02 -8.689408054411670301e-01 6.846073751511159988e-02 7.623170770968422660e-01 8.005407795956239747e-01 -2.428548694997389457e-01 1.742288152074171093e+00 -1.484603089065048565e-01 4.552436461604961182e-01 8.548804441190902548e-01 -4.448215082202710002e-01 2.818330258287501389e-01 -8.044421518636453161e-01 -4.977831569599696637e-01 1.934879171838077561e-01 1.515201827090435216e-01 -4.229963065314694126e-01 -2.098919993422327102e-01 1.517967603425028622e-02 -4.826079451616304694e-01 2.138568588969493312e-01 4.226803079888397097e-02 -2.201576435239817886e-01 -2.783038325125111179e-01 -1.382032858888891491e+00 -7.446330282990197558e-02 2.683619858649370360e-01 -1.233380561881895765e-01 -6.574685389971770544e-01 1.245442538125504511e-01 -3.147284952245560374e-01 -7.229534285150403250e-02 -2.262411085686459045e-01 1.035501349660007536e-01 -1.319742953950696525e-02 1.098447518669286305e-01 -3.704129546761392167e-01 1.145628269467047350e-01 1.712613079947758188e-01 -6.077171241199581103e-02 9.215780266341323801e-02 1.644080920601275475e-01 1.734442771098377856e-01 -3.942349036252586481e-01 -3.074849691154932785e-01 -5.777343152723644071e-01 -1.604076572707773263e-01 8.669216014023697903e-02 -8.022233421757195559e-01 -2.730129198098629195e-01 -1.872878724121267435e-01 -2.387997948088589617e-02 1.395981191972136992e+00 -1.243679229597630442e+00 1.315649095882452269e+00 -4.850713947161171546e-01 4.808824744833287146e-01 -5.925413978539952886e-01 -2.004698554131206234e-01 -3.659085059221617864e-01 1.060038181966615894e-01 -8.642903906452017448e-01 -3.917995585739914022e-01 1.988697409194399579e-01 -7.487420883691381368e-01 -4.322262843070192595e-01 -3.263614963502274868e-01 -2.247477022863504093e-01 -3.414698116713896781e-01 -7.751247797327964761e-01 -3.969959069806011098e-01 1.807685883488695522e-01 2.783431585301446298e-01 -2.382940759520774943e-01 -3.293260232236304708e-01 2.226370273716338777e-01 2.490042909054586140e-01 -3.624649873067519179e-01 -8.889424230491400625e-01 9.741661186051631116e-02 -5.341414913281397059e-01 -1.877352793972485445e-01 -1.849362256715978148e-01 -9.141778374364921689e-01 1.493674855459851680e-01 1.113647603524195590e-01 -2.822994174937217271e-01 -1.208152071332523753e-01 -1.855482298554398876e-02 1.650071039691847485e-01 -1.226702218501873221e+00 -2.278582330905955800e-01 2.106129935155629795e-01 1.535992645850653981e-01 -4.032129689571005149e-01 -3.472610433529124130e-01 -4.566018642582433396e-01 -5.775658592668825829e-03 1.574051939178233717e-01 -2.273959709117153449e-01 -3.884963458660896651e-01 -7.343562080480582344e-01 6.147869632067091625e-03 -2.428598574008551947e-01 -5.120462223007495872e-01 -2.487381584449808170e-01 -2.906121329960639210e-01 3.328139501552851431e-01 -5.710672568411790939e-01 3.097960492407146882e-01 -1.219476841371339437e-01 -1.090487756328043373e-01 -1.091264109715915920e+00 4.060015352499000696e-01 2.919600403128416177e-01 -3.159780670096396515e-01 -3.304639830678705037e-01 2.595243708092790369e-01 1.927221524986890422e-01 -1.855889042371070552e-01 -1.884314804283582917e-02 -3.963516310166659284e-01 -8.812967848251122838e-02 1.949469351311715393e+00 -1.374438253385144915e+00 3.795749039114825196e-01 -4.292296896748334367e-01 -9.039530212420873179e-01 1.177975387554541786e-02 5.119593559150418249e-01 -5.469752226360273806e-01 -6.128162004126816997e-01 -2.071674596462596829e-01 1.005810625524844876e-01 1.160602694926460149e-01 -1.683355404490623486e-01 3.207176900765443261e-01 -9.068785762626423441e-01 -1.532698466175859420e-01 -4.405158228401260256e-01 6.856788925536961843e-01 -1.639716702240430479e-01 -1.770212452030497652e-01 4.931129807421225641e-01 -8.394362769265715229e-01 -2.214063197875690003e-01 -1.638239700908662028e-02 -7.045821729209292839e-01 -1.192578603441778323e-01 7.079687730728057016e-02 -4.823389165239699294e-01 -2.169303295647169449e-01 -3.477736183999839970e-01 3.996537570602965994e-01 5.854452468582202473e-02 5.445780225934135910e-01 -1.475684074236652613e-02 4.971887903700852873e-01 -9.982807610489351502e-01 -3.545894672086070676e-01 1.912848389463072951e-01 -6.692295965327593743e-02 -4.825749427526213609e-01 1.181535598752607441e-01 2.647559687320317212e-01 -2.830796968154429272e-01 2.270835198789228349e-01 -4.956271134571529347e-01 -6.838739616105479202e-01 -1.147422422731772806e-01 -2.106921901090960947e-01 1.176664586152485203e-01 1.912884660952609006e-01 -1.001970054994782755e+00 8.891555567998497833e-02 -1.986049747036106039e-01 4.815890686443721758e-01 -4.775199206042361477e-01 -1.310408409412110231e+00 -4.164635910388454765e-02 6.917496668254639880e-02 -8.998117354222656683e-02 -7.408579948255216152e-01 -1.444595246960998225e-01 -7.767378457863641783e-01 4.427267691027706592e-02 -1.998635905080240749e-01 1.398808025470632266e-01 6.861825062187701385e-02 -3.118381060023780460e-01 2.052859441265050544e-01 -5.251079009170232792e-02 -4.115659135365033472e-01 -2.189919176032472103e-01 -1.653107181578458429e-01 -4.091955371599018121e-01 -3.291924415678342264e-01 5.738614702809632373e-01 1.544953281131353329e+00 -9.926225099592433931e-02 5.079571608835490443e-03 -1.156684456113247883e+00 -5.005284665151894519e-01 -3.130676302651648757e-01 2.459642762038553587e-01 -5.907125271675035538e-01 -2.180365932256983774e-01 -5.447496825576723239e-02 -1.011420443969643923e+00 2.838759982264587034e-01 2.013723037674330363e-01 -8.126383588344057163e-01 -4.983739462784799734e-01 -7.671070351736780646e-01 -1.620321586496826560e+00 -2.886925551165816020e-02 -2.625451939455905048e-01 3.514969059916390193e-01 -3.217361380076685928e-01 -9.135916782807254610e-02 5.133659661484768488e-02 -1.983594837677569722e-01 1.160576523028594188e-02 -1.281888278523910074e+00 -2.505853040180404667e-01 -3.818179143321559499e-02 -2.264744480747784283e-01 3.466169015879730364e-01 -9.575230660902673829e-01 -3.765911973686617009e-02 -2.880677854579001829e-01 8.652816402890924907e-01 5.545419545292530616e-02 2.285915374884024409e-01 -4.458270669851040896e-02 8.800756563738915128e-02 -8.441182799169644202e-01 2.096537128260873295e-01 -9.894422392720046699e-02 -1.117609052802204905e+00 -8.352092749895693169e-01 6.148168656970253582e-02 -2.712699630672083528e-01 4.184441139848633223e-02 -8.910560302441916658e-02 3.756332118669806208e-01 -1.600244101550363451e+00 1.137221679037100225e-02 3.479436208640840356e-02 -4.670935725648844850e-02
-1.080381449861154808e+00 6.303256847803095919e-01 -2.868181830632767285e-02 2.396512773073121161e-01 -4.470493028111112155e-01 1.441571274705664429e-01 3.017194254743211235e-01 4.074532510138640928e-01 2.340294232451892720e-01 -2.723736946564224715e-01 -8.621487843105504201e-01 -5.648176829848937652e-01 -8.071347430962520775e-02 -2.660779454118957776e-01 4.277070689977480744e-01 9.987607639910451862e-01 4.357435379692912308e-04 1.223114444464800388e-01 -2.845515685358389613e-01 -3.398645084734972510e-01 -2.877002357243338970e-01 -3.571433791739486163e-01 -1.967957547971805332e-01 -4.980761873802957984e-02 1.645739060327798264e-01 -3.197791469681668941e-01 -3.532877066986325754e-01 -2.754326659745532924e-01 -4.228693502657798198e-01 1.104455991354450980e-02 -2.212674542048671256e-01 1.989482489987024275e-02 -1.658225316922923021e-01 -5.495248128796079712e-01 -4.066654014840617171e-01 7.111033229090404917e-02 -5.222244829363400509e-01 2.483299117147538537e-01 -2.033241056720161699e-01 -1.091774792528870996e+00 8.127116681786943075e-02 -9.658653082470833665e-03 3.163221835793157966e-01 -6.737190316987677098e-03 -4.759292190595649230e-01 3.293157044405301548e-01 2.049816749570780305e-01 -3.319158312104855679e-01 -7.158380243160168410e-01 7.664008539986008617e-02 -1.047916835541766511e+00 2.876589233374656773e-01 -1.150353483185025116e-02 -2.589227680315337454e-01 -3.478006975378120647e-01 1.112658390210252701e-01 -4.829952282497887439e-01 -2.330866683070918488e-01 9.862441059465766949e-03 -2.382740636397885081e-01 -3.176016083184496352e-02 -8.418385079008593452e-01 -9.240972438459194027e-02 2.195113353419400337e-01 -2.929880619566012090e-01 1.678947892980555134e-01 -6.796459394496062734e-02 1.799679103418567183e-01 7.373682144594574384e-01 -6.558431659598102925e-01 -1.444730613092576610e-01 2.261096211203528772e-01 -2.378021930419569052e-01 3.187947643202451165e-01 -7.664977356624698146e-01 -4.422115155171233991e-01 -4.056365533630452158e-01 -6.858768809033600755e-01 -1.472061266848078420e-01 -3.374845942543130972e-01 -7.459042163701873340e-01 -9.005764137924096580e-02 7.484638306216910841e-01 -6.832800571057733308e-01 5.372054746900941646e-01 -2.818675495435409295e-01 -7.805214000138226416e-01 -4.969163941812462237e-01 -6.729625226300142149e-01 1.178125494606786089e-01 -1.939217641776439516e-01 -6.780255949651396996e-01 -3.553239853126067410e-02 4.063137742258494112e-01 -6.027351128785903012e-02 -4.711512513680148340e-01 -3.934525573838218437e-01 -7.552084570836818944e-01 -6.817765916585220021e-01 -2.256765088060253832e-01 9.519461017652477985e-02 9.704782934506329672e-01 -8.412178878265058612e-01 -1.828109474951301328e-01 8.456048389684178712e-01 1.654689975212043085e-01 -1.072459469209304378e-01 1.948770380803078461e-01 9.519162643370158647e-03 -7.160484393842642126e-01 -6.807604413972511148e-01 -1.289577427895286288e+00 -5.445286427437642796e-02 -9.315224985987076156e-01 3.893945601334890538e-01 -2.129955025238468302e-01 -4.581325334834585039e-01 4.823865344046622261e-01 3.228170324411905878e-01 3.864083828975767992e-02 -5.175135649756783945e-02 -5.422616729111043865e-01 -4.362219935773962720e-01 -2.897661037058490430e-01 -4.517526898635033650e-01 -8.048171065393988632e-02 5.003482141906746561e-01 -3.866811442742068006e-01 -2.782481233504725537e-01 2.357683592924643412e-01 -1.037447410859980608e-02 -4.458259332929350172e-01 -4.999409848262461042e-01 1.180067545238849408e-01 -2.427523413444050149e-01 -1.710890921507618678e+00 1.962716970937883609e-01 3.191286161446424963e-01 -3.228727062201048881e-01 -1.852729102214516199e-01 -1.316357873120028499e+00 1.962115469345613872e-01 -4.987993771826945005e-02 -1.350055292309046417e-01 3.593477926028079694e-01 6.630871430662192527e-03 -2.540468420602244939e-02 2.692049165209330908e-01 -7.737896120801547317e-01 1.460265370045400052e-02 3.229746213915848235e-02 -1.247596730694828238e-01 -1.301612531165282916e-01 4.351882633788153321e-01 5.001526496805599464e-01 2.606082202914418167e-01 3.501937745663268042e-02 -4.116232288057825039e-01 -2.851595648944389438e-01 3.268972988908451782e-01 3.948775739410627095e-01 -2.000367447349407912e-01 -2.964032413369043772e-01 -8.825218546610042944e-03 -6.231983565367155142e-01 -2.932639796172289981e-01 -1.880341734330912354e-02 -3.133148121935743630e-02 5.789113672744259365e-01 2.582089990950649505e-01 1.725641427447345833e-01 -3.994861424100172309e-01 9.986185302019867649e-01 -1.839343781290136426e-01 1.427651249965302460e+00 1.311140679352850724e-01 1.378962458169540883e-01 -2.632895384715375209e-01 2.240715697785412852e-01 -5.676287967837259085e-01 -4.791077119112458621e-02 -9.492560685411810528e-01 -3.398641957236671063e-01 5.410084876656097441e-02 1.895884087130533247e-01 3.840344839489036044e-01 -1.957855748185270972e-01 6.731553454659587599e-02 -2.296711449612851563e-01 5.415414300387237923e-01 -3.841610752985396005e-01 1.498280128486543239e+00 -6.217878481696335058e-01 5.554911187284721635e-02 -8.872816375693419744e-01 -9.450046639167143658e-02 -3.265925100068134412e-01 -2.826204381495343587e-01 1.201554359927895499e-01 -4.724266499435826328e-01 -1.448813527093643638e-01 -2.868268651421083670e-01 -9.449360017669176937e-02 3.689524125732539933e-02 -1.834984668652967776e-01 2.769588300914342938e-01 2.744328525582943046e-01 -2.634867149336895253e-01 -9.008963882739680351e-02 -6.105954567908771224e-01 -3.166812450567498272e-01 1.857903982876713267e-01 -1.375479774178938186e+00 -3.087676833969973944e-01 -1.155949720341642173e-01 -4.661490234324074944e-01 6.976424077905890586e-02 8.582415087230284290e-02 -4.674669619374599017e-01 -9.490678377105113972e-01 -1.791246851080063873e-01 -2.481857546452752028e-01 -2.587521866755028710e-01 1.779014918894459008e-01 -4.738119928684682014e-01 -4.427092176867332141e-01 3.928010254527012912e-01 7.211018690802978304e-02 8.570621478694734341e-02 -2.958676594083749223e-02 3.335704391832780558e-01 1.182263642823203176e+00 -1.576485576940094946e+00 1.535618581855084486e+00 1.099515898183263535e-01 -1.092424331454261294e-01 9.752080853681992234e-02 -2.452077713336400511e-01 1.253820795941774424e+00 -8.637071314397627708e-02 4.102242780969534569e-02 -1.750164509596162030e-02 -1.501091307198019753e-01 4.310801661581912247e-01 1.346735779248191267e-01 9.739074869087523956e-01 -9.941208047313941643e-02 1.139934534231950153e-01 -3.220371349572597186e-01 -2.643694142610842901e-01 9.285407481650002071e-01 -2.973344500882585950e-01 -7.053172320919048888e-01 3.262197773311248938e-01 4.221522898789058925e-02 -3.215329624298727818e-01 -1.651229433394643675e-01 -3.700627400197965544e-01 5.230869665054673628e-02 -2.034337248906501194e-01 8.361608716539042918e-02 -4.834810459923731263e-01 -5.303248960691894082e-02 -4.240777633060793250e-01 -4.146705266774369791e-01 8.822606757208248385e-02 -2.167366821668079147e-01 9.554249383712605237e-01 3.891825738748043717e-01 8.384477777251922448e-02 -5.185082164368026714e-01 1.579990228464817958e+00 1.448707668689668271e-01 3.094738119207042226e-01 -1.057194820222570261e-02 -2.818960961283959454e-01 1.663553741316082524e-01 -3.408209583923557662e-02 -8.425340432048396000e-01 2.465572976278305739e-01 -1.043067000392015609e-01 5.130589374908644390e-02 -9.071551491274104650e-01 9.638159774116912271e-01 3.648116387457093213e-01 9.965227797774124374e-01 5.799224505992786050e-01 -5.275812737284457654e-01 -6.737112192058496672e-03 -2.322971223968313959e-01 -1.911582801387804731e-01 8.723077620818895372e-01 -9.801906362960730590e-01 3.098216542161815745e-01 1.273980632850168215e-01 -9.123885993763789504e-01 -5.257982793903985819e-01 1.696907161978632519e-02 -1.142857612810505435e-01 2.334122928200929870e-01 -4.248982083243502128e-01 1.709371654604734669e-01 -2.805428378690931757e-01 -3.943797677908756488e-02 -5.477224859755434050e-01 2.283418746677486622e-01 1.800450064262958116e-01 2.144275192406721320e-01 7.366721407105014663e-01 -4.013013081106808211e-01 -1.490905055816259261e-01 -3.535969389028634779e-01 -7.797442310193666293e-01 2.934575951197446186e-01 2.057991230854453596e-02 -1.272898847397696764e+00 -3.624961066884684335e-01 -1.506367725181489703e-01 -7.076363702668506117e-02 3.543487529907162759e-01 -2.216077788609463195e-01 -3.569903494804622102e-01 -1.421984619632054858e-01 -5.675325682398297822e-01 -2.917103943583962966e-01 -4.841167412771736900e-01 4.098366060284757695e-01 -5.717831027041553327e-02 -9.969834778647483908e-01 -3.437385082880798914e-01 -3.839454849299421269e-01 -1.753927941655218647e-01 -8.269508223948520698e-01 3.907004800478880990e-01 -1.124555099763232313e+00 -3.801035997330801108e-01 2.792232088791055111e-01 -1.227304404186652237e-01 -6.720241030671177118e-02 -8.021450299774035564e-02 8.752133406335217691e-02 -5.286519362754159290e-02 1.134375729274016420e+00 3.275537961211865134e-01 -3.112929273365631078e-01 -1.651145076899175612e-01 9.379554960969869667e-03 -5.000116134875011165e-01 -9.565197289677865311e-02 3.295952251983666481e-01 2.126253871122836259e-01 8.825701323491956796e-01 -4.229999552581378275e-01 -3.043622941191851949e-01 5.355071988240175246e-02 -4.098543744983332467e-03 -6.065146325537947858e-01 -7.498104842702693063e-01 -1.989324224793669049e-02 -6.097045065310378043e-01 5.060231899939737765e-02 3.630726039090757459e-03 2.559911940441921274e-01 8.016674951815129235e-01 -2.174993186361429687e-01 2.283783825492151365e-01 -7.983336820047455540e-02 -1.363240436326168536e+00 7.169415395418768933e-01 -4.554136315937951651e-01 1.090836839482042520e-01 -8.432111240701962995e-02 -2.574442467514325705e-01 -5.357958734409153934e-01 5.154511769645498953e-01 7.093427537257224191e-01 -1.095182533479276965e-01 -3.070516358689777750e-02 1.207963417167606801e+00 -2.141248982271962698e-01 -2.475753041941219090e-01 1.975967895030871502e-01 -4.000400354233722422e-01 -6.722279165226209274e-01 -5.299591082037868883e-01 -2.912249515957409107e-01 -4.179829173997612890e-01 -2.802975751743230215e-01 -7.913084190645602867e-01 -3.419568100766136043e-01 -2.845775925258826056e-01 2.794049378680092399e-01 -6.079644231702039381e-01 2.393387886454483304e-01 1.682283017113424262e-01 -8.801334284081457904e-02 7.543773058711382429e-02 -3.147263882944438818e-01 -6.947038008771168061e-01 2.068511341907198486e-01 -4.609896494822195434e-01 5.124222913215069619e-01 2.957453112929113725e-01 -2.629350579528421106e-01 -1.237532529144789589e-01 1.417090007730703871e-01 -4.073204828397377630e-01 6.917838298226134386e-01 1.589184561245463034e-01 4.019171021765440277e-01 2.499815913475013016e-02 -5.960979978356655273e-01 -6.415033025656563526e-01 5.354241961180894460e-01 -1.746166380774595295e-01 -1.879167204811451053e-01 8.041578727974012519e-01 -3.321742919672468486e-01 -1.005815175506574732e+00 -3.443156843877588358e-01 -1.073542980948964803e-01 -1.219451313323867414e-01 -2.316753877551024354e-01 -2.058811769513674839e-01 -1.087313107424024317e+00 3.161623529502934904e-01 6.624347939385732964e-01 -5.313999268715680069e-02 -4.812163619657232050e-01 -3.033859056927658004e-01 -5.014081207066102275e-01 -2.018205559378920821e-01 5.051791952042009037e-02 -4.152374123962850744e-02 -5.649569767580933100e-01 -3.223932888123261509e-01 -1.346380302613116309e-01 -1.324707666493946390e-01 -4.123347505452072959e-01 -4.543238743965292703e-01 -5.916126306498414866e-01 1.336342477956835806e+00 -3.240199495761020843e-01 -1.622604189601113689e-02 -6.555382083118896364e-02 -1.374765140221997084e-01 6.975655557472201784e-02 -1.216488812905269556e+00 -7.280150225252307594e-02 2.903335807295845741e-02 3.488138593677089783e-02 3.817226981530166818e-01 -2.699508983588722044e-01 -2.439992812483110941e-03 1.874082562708277999e-01 -1.895965591470209766e-01 -8.045946464503581086e-02 6.352680837105474654e-02 -7.674999606097161753e-02 -1.484585569878440203e-01 -5.062317100675540749e-01 -1.387644302939085653e-02 4.579005884187374309e-01 6.396375254228350848e-02 1.909026358732374418e-01 7.524630979692625843e-02 -4.750592542462210299e-01 -4.329433336323273984e-01 -6.627382019970450011e-02 2.966728356083734447e-02 -1.228404376247843821e+00 2.395834041773018883e-02 1.364415422860833838e+00 1.617238060398405175e-01 -2.083253757389346983e-01 -6.903374651229482462e-01 4.732437234128883397e-02 -1.456993572814997140e-01 -2.141131746023258453e-01 2.087072928428277963e-01 -3.414722286781505800e-01 -6.132087571172876173e-01 -4.305015836704106924e-01 -7.214998024321259695e-01 -9.699518674224403281e-01 -1.293473516657462317e-02 -5.485407041002247075e-01 -4.888975831885347678e-01 -8.065428844772629668e-01 2.682737552152619220e-01 7.739234472831252321e-01 6.351921445207812100e-01 2.145895052056979169e-01 3.116634667579344375e-01 5.035781245100924564e-02 3.964879650098322439e-01 -5.983647464562186213e-01 -2.795827322593512632e-01 -5.794022293572004267e-01 -2.295291199580890285e-01 -3.630618636018344003e-01 8.426803247817596931e-01 -4.259915881753767453e-01 -3.529706187825423780e-01 -5.062446613231289527e-01 -1.478920237092447021e-01 1.861960321444058875e-01 -3.382681153288008558e-01 -7.783109262411205820e-02 1.660453728757544864e-02 -2.345549287935400906e-01 -1.692072828175263111e-01 -1.189982463565199655e+00 -6.733716876972007936e-01 -4.605516607846170674e-01 2.074806208916057937e-01 -4.269770229722660848e-01 1.297479320923187740e-01 -3.823269706883926367e-02 -1.525316156683149460e+00 -5.463839817500040080e-02 -1.181149613686689054e-01 -2.817971875357382361e-01
-1.180134237938910147e+00 4.129016931490469555e-01 2.839658562362828431e-01 -8.209474705759643720e-02 -1.900569640467775490e-01 3.201152914347806799e-01 -3.810868528926077969e-01 3.508274274827772876e-01 -4.311032237981650694e-01 -6.107630439940212597e-01 -3.870218341373226623e-01 1.714315327020914104e-01 -4.517715005127384553e-01 -6.972086109653005126e-01 -1.815594983280797436e-01 -1.258789169719479184e-01 1.438095775228460105e-01 1.557041770868461961e-01 3.563480321319674737e-01 2.842991077083134935e-02 -1.174228225811954109e-02 1.221572291676019939e-01 2.183316085846134236e-01 1.561757555599223857e-01 -1.450113200239108446e-01 -6.480597471825446654e-01 -1.226013536471741161e-01 -5.208544974971999197e-01 -2.185825933325802051e-01 -2.161936546703008277e-01 -2.648475205110050190e-01 -6.919518972247464816e-01 1.419596391187966378e-01 5.347629811332499372e-01 -1.093609147778668300e-01 -1.320085469627542973e-01 -8.404219599911580962e-01 -7.573565889846908261e-01 2.561454742218932656e-01 -1.207618583785805111e+00 -5.221002522930441314e-01 1.148729255075262856e-01 2.763128915587794165e-01 6.563593291268325636e-02 -2.934289766699072488e-01 1.547586599985531497e-01 9.751553795426129989e-01 8.006688818940743690e-02 -1.559132952132510630e-01 -3.566656721021245202e-01 1.675078225390651765e+00 5.592243454744963982e-01 1.084063088812657005e+00 8.270702828957753050e-02 -6.924377018369796133e-01 -2.630790184194117254e-01 -1.586119136646491345e-01 2.627605309408082013e-01 8.924755884768741099e-02 -3.481735488539565715e-01 -1.796796436527157981e-01 -3.692849900399733931e-01 -5.085485335623692871e-01 -1.266928983821713040e+00 -3.159045498468107671e-01 9.822933965477762541e-01 -7.766877642228651180e-01 -3.920927673119489754e-01 -6.768416629275634255e-01 -2.734900249928170698e-02 2.476583949604108936e-01 1.503303197114351508e-01 -5.411838223858770336e-01 -8.602020922226358279e-02 9.663166072357904923e-01 -3.022118110672989966e-01 9.139998075677431555e-02 -7.312468880967619711e-01 1.099942820268043769e-01 6.657883833276223573e-01 1.105588023826294952e-01 5.066485755170462707e-02 -2.150240304944256997e-01 -7.087177361990384394e-01 -1.398133904647739012e+00 -6.390852622024874030e-01 2.633917055569867660e-01 -1.049733605503212208e-01 -5.310675381048597377e-01 -3.699552171860955863e-01 5.327694342140093520e-01 -3.073503433819562702e-01 -6.550154890430432975e-01 1.444660605807939202e+00 -1.990512695360801831e-01 1.760648336332606631e-02 -5.408790980980618945e-01 3.019491320713448834e-01 2.906633933140561135e-02 1.557802894013516903e+00 2.004731753136578809e-01 -8.018606576915562334e-01 1.903830407336194186e-01 1.859249504520789742e+00 -9.088054184742737629e-01 6.545842339051290149e-03 -1.043139254125708293e+00 -2.631318538921512129e-01 -3.886290877866342974e-01 -7.574479196248489199e-01 -4.056365071328638661e-01 -2.047770866962953296e+00 -9.117516681435770820e-02 3.265956622258987530e-01 -1.102523547608134057e-02 1.728844976552735835e-01 4.690711468311261484e-02 -1.942774292078597032e-01 -7.594707241298466471e-02 3.468157225150813594e-01 -1.146385140277112087e-02 3.483136921487654525e-01 4.105992501716462240e-01 -1.490667321316273830e-01 -5.144607326025346650e-01 -2.952382940239057785e-01 3.033135410883378569e-01 9.286538271862483374e-01 1.511564975229051422e+00 -5.436698438255493232e-02 -3.224569518984343741e-02 9.364160730429942348e-01 9.604675519057243038e-01 -2.432389282396199837e-01 1.814954011455242877e-01 1.247196676330512455e+00 3.399381297357113862e-02 2.170706271498065720e-01 1.926913980974301055e-01 -2.874445642459357853e-01 8.775029338738930818e-02 -4.018064706791592000e-01 3.655749646241301387e-01 1.564756483392389097e-01 -1.365001916770972601e-01 2.587418142666186860e-01 -2.819782876372049496e-01 -2.813133551309816016e-01 -3.239769149508434642e-01 -1.523081658862301957e+00 8.264835812696035289e-01 -1.823386366699720207e-01 -1.763957285725277491e-01 -1.649225358332289670e-01 -8.678017030325803072e-01 3.482043100655481810e-02 -1.441423840789274602e-01 2.028226410247221112e-01 2.493868411970098786e-01 1.761882514914675513e-01 -1.864622860382496305e-01 1.395600152250363157e+00 -3.824810215757236675e-01 -7.812614828102799891e-02 -9.117449261046600695e-02 1.638853440783602511e-01 3.327151572337738727e-01 6.182505638135556147e-02 -3.184131817889239713e-01 1.671135603060237840e-01 -2.854003867640170222e-01 -3.130408516956477150e-01 1.568561153675436692e+00 -4.748255958441625069e-01 -6.740203586530263413e-01 4.758591112240177085e-02 6.298994841677242607e-02 -3.481552107237675386e-01 -2.984557935202901136e-01 -1.332218803620687508e-01 -3.901167709351804208e-02 1.848280715747115499e+00 3.108810938329940599e-01 2.207140520971741793e-01 1.441254982015181263e-01 1.909804854567029864e-01 -1.455371144878348511e-01 -5.842434157389383292e-02 7.918168976290622663e-01 -8.796544645368044035e-01 -4.124794468911863743e-01 1.697679657339294657e-01 -6.365499847257692634e-02 -2.163285207890656703e-01 -6.052086564497630716e-01 -3.772939529088722987e-01 -1.247559192496464596e-02 -2.658542674781464443e-01 2.994320959823149608e-01 -7.201277356203997573e-03 2.315237833589260386e-01 3.269137144262216355e-01 -7.920803898486310501e-01 -1.691803600358557647e-01 1.059315797674029280e+00 -1.699677890731683960e-01 3.412611024177983898e-01 -5.750724338698697258e-01 -6.542719271550354598e-01 6.671394397843455337e-02 4.829352673406603347e-01 4.278363344157556369e-01 -1.448414163980819680e+00 1.196481170549191092e-01 3.660148248532370946e-02 -3.561423056457554415e-01 -9.900113117209037583e-02 -6.584345439155576685e-01 5.975585486018470532e-02 -1.492846189558148795e-01 -7.562844387355965869e-02 -1.818028683369398990e-01 -9.974960632549971784e-01 -1.870592542412631010e-01 2.817895501616335951e-01 -8.048092193730144173e-02 2.294246714684279320e-01 -7.595419853299220092e-01 -1.441640329513870222e-01 -2.468486041378591678e-01 -5.675493610355041296e-01 1.751767323994286585e+00 4.071264098675741461e-01 -4.951325462008272504e-01 -1.628514228719865342e-01 5.578323430813983963e-01 -3.725712518707083309e-02 -3.603010137745973340e-01 3.584219540838817775e-01 -1.280574185904743700e-01 -1.679520760142469427e-01 5.165157163377349231e-02 -1.861163481898513994e-01 -9.807431388902247693e-02 -2.949566174816896647e-01 3.033584544595889776e-01 -9.286092862055954356e-02 2.242473945009187286e+00 -8.612258361756748581e-02 4.147896428787322121e-01 -8.185605375948232232e-02 -3.279839859724342221e-01 7.048281436244605569e-01 -2.234447963404495030e-01 -2.110141683246331001e-01 -4.372156686987699881e-01 -1.470468405821735193e-02 2.601610828336365505e-02 -2.119274961394846113e-01 -3.511321129083108672e-01 -2.422719290401955782e-03 -9.550245534420419291e-02 2.794807502267088531e-02 8.744420459800080758e-01 -1.258703995235663786e-01 2.208167578565007998e-03 -1.154997260872326237e+00 -1.436430283895128834e+00 -2.781415005453026223e-01 -1.798137653407612113e-01 -4.131944031169028538e-03 -8.265000007803672277e-01 -3.451452186717333670e-01 1.001554152330276365e-01 2.554067408449717913e+00 1.852484591780932666e-02 3.587413398618180538e-01 -9.447074821523749888e-01 2.020434115443369982e-01 -3.070196184773850145e-01 7.712395884890024256e-01 1.885736469189953357e-01 -5.061731838494720748e-01 1.258750977357002032e+00 -2.525524437947370693e-01 -5.437206179185227750e-01 -4.423535252615699159e-02 1.987139594796331551e-02 1.629949320605122709e-01 -1.064585237957914376e+00 3.933025769171561992e-01 -5.278661698657013401e-01 1.389567338820255182e+00 -8.371055240802451891e-01 -5.345524382553545895e-01 2.315083015652465437e-01 1.016269785892925659e-01 -1.338339598153920118e+00 2.139307513908288993e-01 -1.282179871310785702e-01 -4.230317410871278772e-01 -1.678548878773164499e-01 2.934504645461498140e-01 -2.131280015957892349e-01 1.119545959167554505e+00 -1.532105126588029886e+00 -1.923142583334080113e-01 6.079409339848865224e-03 1.715445025488956665e-01 1.251393644123002247e-01 -2.067850929334864585e-01 7.541581976585370883e-02 -8.069659038209622270e-01 -1.967085341029446710e-01 -4.043100796710804579e-01 1.044981531084643755e+00 -4.165774911279333526e-01 -4.220748939401305910e-01 -1.637196271095346656e-01 9.436593897475928361e-02 4.573468019581721777e-01 -1.641357159997512971e-01 -1.121194714946291693e-01 1.653815935020844785e-01 -5.237577488740202680e-01 1.096352442434950225e+00 4.053617686646837637e-01 -2.942994462841579950e-01 -4.384391279846593381e-01 -4.708695880265777456e-01 1.899930328715306038e-01 5.426143743113381879e-01 2.124269810550617199e-01 -5.324108732632122365e-01 -3.765718677119596625e-01 -1.102498905732276491e-01 -1.217843572390421514e+00 -3.683120669831849714e-01 7.514044971242642146e-02 -1.674718245822345020e-01 3.744773219973680095e-02 4.058853771050129344e-01 -1.938685260179335623e+00 -3.119837659202585600e-01 -5.804166704054595227e-01 5.183050683664991443e-02 8.870678284739769159e-02 -3.979435774706240742e-02 1.540655886188125046e-01 2.116193675962020626e-01 -1.279314524976958412e+00 -1.122157291238091714e+00 -1.846776286943706546e-01 1.259056094522600810e+00 4.464821283586564160e-01 3.541960501660014193e-01 -1.770895589924932900e-01 4.791856595702067567e-01 -6.572537627844160513e-01 -2.622482330952962681e-01 4.547154813446590560e-01 2.575646892623977349e-02 1.362836227791156818e-01 3.004727146968749207e-01 3.266715700876683393e-01 -1.131860131634803979e-01 -5.296062810169261531e-02 -9.178520380126974354e-01 -5.571427035353716528e-01 -2.385769723688729582e-01 -4.747805023308955819e-01 -1.464809610439509607e-02 -9.279388110709289872e-02 3.509427394136696576e-01 8.032612438034961722e-01 5.065125183700914802e-01 8.409124607585717615e-02 -2.068001442898249886e-01 -1.091704381983279237e+00 -3.137670801007435006e-01 -1.573261060433629177e-01 9.655205350984987778e-01 -1.799031971923956141e-02 -2.043992485767501532e-01 4.395474859349426389e-01 4.554247418883356491e-01 -1.812218384787326331e-01 6.063905813224951952e-02 -1.444402415307706466e-01 4.898715540656276013e-01 6.571174263428462836e-02 -2.044526690748663805e-02 2.201668236175281512e-01 -7.692960994028083532e-02 -5.368807477086610103e-01 1.908850123454123970e+00 -1.231908961575678196e+00 -1.510812812932134930e-01 2.216224992278026662e-01 -1.960211156611809669e-01 -3.108411605772160580e-01 -6.611327460305554959e-01 2.711832554024925512e-01 3.548944993847855112e-01 -5.263137369852064484e-01 -1.395179407001233107e+00 1.010187788931168340e-01 -1.394946298616206670e+00 1.245325757215089840e-01 -5.675345793167008851e-02 -6.777611172837583187e-01 4.720271266398711751e-01 -5.505743865640894824e-02 -1.533502696724815539e+00 -6.436456298810706578e-01 -2.406200350792312981e-01 1.570189940249696159e+00 1.514532661045024931e-01 4.171683034736628493e-02 -2.286146085384655954e-02 -3.839931240892223707e-01 6.239143505885827445e-02 -4.916128764227676307e-01 -2.269574822561755689e-01 -5.738326716818237250e-01 1.913841954216691232e-01 5.920376415915064028e-01 -4.188449077200945836e-01 -7.856440747603655739e-01 -1.732677469631548062e-01 -4.018632152973798943e-01 -1.943999630379861898e+00 -3.101560629150700299e-01 -1.124094442966016683e+00 -1.512508302964080120e-01 4.445753302854625333e-01 -4.434252745501238158e-01 -2.756758630685357536e-01 -1.214910353951526301e-01 3.508550649226796492e-01 4.024155723460111078e-01 1.944635577857199427e-01 1.504088372839875454e-01 3.667467448524254769e-01 -3.750856880275004746e-01 3.140718661332018713e-01 2.201305312899989985e+00 -9.011640994742028399e-01 -1.469937764293286209e-01 6.918606681559018590e-01 -1.834377020362552291e-01 7.754013482513915090e-01 -5.971913714429691877e-01 2.498172492930007815e-01 7.400810252796490192e-03 -1.340546403066356973e+00 -3.729163716849250299e-01 -6.943741588911218621e-01 -2.664191871820772994e-01 -6.241459638113074915e-01 -4.763351853307532663e-02 -6.876809133100844074e-01 -7.865300627938183464e-02 -4.002959931041683017e-01 -4.034145922667670137e-01 2.968328806256294583e-01 -4.903299873460038594e-01 -3.597644411897735900e-02 1.084819443637637104e-01 3.882265867622213817e-01 -2.553960443044322459e-01 -4.460549681849728110e-01 -6.751522330327586197e-01 -4.451680011399170023e-01 5.207119221966894917e-01 -2.445140822994745222e-01 -8.801259771149934352e-02 2.035540779869857153e-02 -8.671882333462006820e-02 5.244921927334268430e-01 -9.251877867548989609e-03 8.162462079758066036e-01 4.504039349383677227e-01 -9.883763882585948346e-02 -8.361000069540223956e-02 -1.147988308954753373e-01 -5.874945976072208920e-01 -5.109276489877683236e-01 4.204347242787505046e-01 -4.290972132597420940e-01 -1.067591757226496185e-01 6.717943050125556592e-01 1.624826895641200142e-01 -3.493239397391335044e-01 7.488642019268360039e-01 -1.459103554992256802e-01 2.173371131315813720e+00 -1.195437325101189385e+00 4.852993452881739223e-01 5.815696478724159679e-02 -4.504257328971942309e-01 -9.263462999480494009e-01 -2.228649913992210296e-02 -1.923546723346465648e-01 -4.602118939998584013e-01 -4.041291017257067075e-01 -2.745623280066392669e-01 -3.768685471612009952e-01 -1.701983647114893236e-02 -5.479365383201429962e-01 -2.157649817591661690e-01 8.556559972377975054e-02 -5.457993941836970508e-01 -3.794415818288313647e-01 1.359340435465521413e-01 -8.498247144859892577e-02 1.307294208626964549e-01 4.265802564987014600e-02 -1.804951193598026971e-01 -9.635645397306445981e-01 3.872980292867487240e-01 -1.822818208510630644e-01 -7.643096962257443783e-02
1.966627543741975570e+00 3.035094662803447529e-02 -2.540471843761378246e-01 -2.362754471647303400e-02 -2.250082835666537828e-01 -9.446775782557135237e-01 7.682671220848698024e-01 -5.338181270392148292e-01 -8.856447699847067034e-02 1.324513978614903387e+00 1.705793846617140175e-01 -1.060760854721294999e+00 -1.317864545811193500e+00 -1.474509442954149430e-01 -2.326001896476176944e-01 -1.239778024621071673e+00 -1.605026129542948821e-01 -4.605706115711564741e-01 1.467067584551319803e-01 -1.339034172296080794e-01 -1.272341514429135012e-01 -7.392043491386134091e-02 2.143778768338446272e-01 1.000575702347594464e-01 -2.413119114760744199e-01 -2.906640179664962687e-01 -7.377622089054600152e-02 9.226416602578325216e-03 -3.620279922108175508e-01 -7.152940068427260378e-01 2.212941613113571793e-01 -3.496510873270630704e-01 6.370937171651264164e-02 7.331667603843895764e-02 1.813213146648071650e-01 4.744738178492198810e-01 -1.276980783370889938e+00 -1.143104597772210074e+00 -3.520576941056344222e-01 -1.651825486764763873e-01 -2.707641270932621413e-01 -4.508793051232241611e-01 -1.103782506439853067e-01 -5.246754460567252254e-01 -3.291934452116318521e-02 -1.770785648291833825e-02 1.452030793874356407e+00 -2.719669027720471588e-01 -9.804444635998504909e-01 -5.260903457241097869e-02 -9.744892114174870112e-01 -4.586157949076415941e-01 8.501775121670461788e-01 -4.507393693411045899e-01 -1.047818979637289843e-01 -5.869184871516177626e-01 3.296298084269909112e-01 6.735037546892702620e-02 -1.254264409639432865e-01 1.993112747199156654e-01 6.363220549768494605e-01 -1.735847981120353101e-02 -8.534046580237689694e-01 -4.975670371428606575e-01 4.338798548609671402e-01 1.148113854229808745e-01 2.042259567562325073e-01 1.196583256035888221e+00 -2.741054441991276347e-01 3.239518004854013422e-01 -6.559797216720031354e-02 -1.272297512048533308e-01 -3.815297717565460101e-01 -4.823592233919422045e-01 1.724344525316418575e-01 -2.903573100018792472e-02 -6.825613979853760727e-01 6.492965569420663385e-01 5.913684794750524720e-02 -5.777022401371120219e-01 -2.831838511354212162e-01 3.188839609670956476e-01 8.437438996313972872e-01 -1.855322551402651676e+00 -6.488855195242538842e-01 -3.606855718070618444e-01 -3.353106664371986456e-01 -3.592968148500950282e-02 3.265466535023671055e-03 -4.900717053006750645e-01 -1.789201917347825466e-01 2.748239685529490495e-01 5.137245697826418045e-01 -2.155492752011640700e-01 5.982980863330546184e-02 -1.656472691405840858e-01 6.592094717451703056e-01 1.344987719180606167e-01 -1.408563505062442101e+00 2.408874908749100707e-01 -5.695405560251476373e-01 -1.062066300381069084e+00 -5.494756783212505491e-01 -4.360705471797386990e-01 -5.570392549457769960e-01 3.564370825275846033e-01 -1.340886997141028658e+00 -2.306887670495174070e-01 -2.591131341542388111e-01 1.769744716654330086e+00 -8.256179718106322341e-01 -1.563711733355758193e+00 3.944864059676718160e-01 -9.806181754117641036e-01 6.048545677843925050e-02 -2.532319024292343235e-01 -8.256233122576804861e-01 -8.468543628922717836e-01 -4.679986231850124384e-02 -3.149767569582690996e-01 -1.713581739611123589e-01 -7.226691069296069525e-01 -1.013935894485137545e+00 -3.553023872370249941e-02 -1.372438074597957525e-01 -3.773482375537409728e-01 -1.180269622533648179e-03 -4.983247914338491125e-01 -8.300711321055417313e-01 -6.450261443774143455e-01 -8.495726348082170976e-01 -2.726301731527605021e-01 -8.625431464938965176e-01 1.321822264927549062e+00 -2.162478005415163496e-01 -5.240491567285889829e-01 -2.100197888606577246e-01 -2.212117358077521356e-01 6.809903958579526240e-01 -7.408684270923083792e-01 -8.708811458410306017e-01 4.682781251741462147e-02 2.438963039218913498e-01 -4.189492948874095068e-01 -1.359990720468713110e-01 -5.237508158369170719e-01 -2.334491959705944919e-01 -2.074778370908301195e-01 -1.299093418395231569e-01 -6.471932108235054493e-01 -7.090566272540717030e-01 2.017314188232433581e-01 -4.283833376949078842e-01 -7.024907965940783150e-01 -1.135753394923924714e-01 5.760423730662663777e-01 -2.824228156545021545e-02 4.826079698714421662e-01 -2.964928695299805517e-01 -2.529510199586114672e-01 -3.846362340640554489e-01 -1.237036840716579045e+00 3.188054387089327146e-02 -3.525296533200467652e-01 1.343880809460225922e+00 -2.017639340039223406e-01 3.619619522175472337e-01 -4.844824027696733593e-01 1.827640889684053471e+00 -6.965016611917075606e-02 2.463705244277480944e+00 1.955672131722583085e-01 -1.165860768794390268e+00 2.685407677312298680e-01 5.454469583586999543e-02 -9.949210811334185944e-01 -5.093167369609533646e-01 -1.092250220334899519e-01 -2.053988639292603502e-01 -3.849779363293731604e-01 2.578838066963188846e-01 -7.760623279724350176e-01 -1.922922902933286715e-01 1.116038918074523101e-01 4.021353784378002283e-01 -5.760495504296070379e-01 5.953738106289258036e-01 -3.491308451638011623e-01 2.191647117907997155e-01 -4.030851137251890148e-01 9.389352450127524952e-02 -8.139241268203359359e-02 -8.400911042994847755e-02 -6.621071346850208872e-02 -1.175518358807018604e+00 -4.278838848594246347e-01 1.920203585550900593e-01 -3.002656236144157775e-01 -2.199582585399789680e-01 2.574382175535931405e-01 -5.490526102168686862e-01 -3.795503464162446328e-01 2.657508192472350390e-03 -2.287518830782795179e-02 -4.896274385219285818e-01 -2.865788053063398344e-01 -2.010843468033030879e-01 3.853938835616653180e-01 -2.330213580091900771e-01 -5.841244912323453331e-01 9.539458177625534385e-02 1.488310276186396997e-01 -4.299015595300424430e-01 3.229923243562691781e-01 -7.942081115224666754e-02 -6.522576647470632039e-02 -2.127009429129767537e-01 2.427461736031554518e-01 -9.057408718154527638e-02 -4.161655901327157014e-01 -9.393125585753399343e-02 -2.605616637891983167e-01 -1.152862849981701965e+00 -4.220931070786589911e-01 -1.803171075073274343e-01 -2.208015475811598016e-01 -8.838153324233166686e-02 -2.886582143908159592e-01 -3.324621553183930156e-01 -1.977007317243627826e-01 -4.755111441934805616e-01 -7.353124593570881107e-02 1.229719808988474217e+00 -4.688406175577934931e-01 2.608572035182370463e-01 2.319196472419476907e-02 -3.508261943006800720e-01 -9.081091668226579650e-01 -1.160330695223109748e-01 -5.632117393774719932e-05 1.046551824254739332e-01 2.209090225386087583e-02 -5.440872635613234198e-01 1.310416541457569695e-01 -4.171613819057010120e-01 -4.077373006777209041e-01 -5.126000330078468725e-02 -5.440585650160720821e-01 -2.035338488180333250e-01 -2.133413148080874344e-01 -3.884858901746325310e-01 -3.425103460709164604e-01 5.549710962227214495e-01 -9.252807234155147054e-02 1.432185105023435490e-01 4.608691685281087747e-01 -5.820803658100129896e-01 -1.135492659139104438e-01 2.422897478840533025e-01 3.830621872696725605e-01 -8.659578851012980638e-02 -4.176224820353490186e-01 -4.234969703758488246e-01 6.648969008878425901e-01 -6.777903731867428450e-01 -1.680647319367101211e-01 -3.328315190118577571e-01 -1.992653743838920910e+00 -2.489903110090925520e-01 -3.291765397274263316e-01 1.297653306398231843e+00 -1.297444630039847890e+00 -4.717037766898646289e-02 -1.167603769635352784e-01 -1.184233071827922812e+00 -5.767135330752131556e-02 1.857463712628860120e-01 -4.854095906503781976e-01 2.747562500727892543e-01 -2.111090800817469748e-01 -8.048746643261004419e-01 2.719364862077917611e-01 1.342844777865101813e+00 -1.456333132824674803e-01 -5.985547056498211616e-01 1.358938504161036454e+00 -1.742078604105951611e-01 -6.950127963384260532e-01 1.290693613043556731e-01 8.883705415071569966e-01 -2.761097005294669282e-01 -8.193879470637294160e-01 -1.154632897157704008e+00 -5.951946014693597631e-01 -3.861067263632212976e-01 -2.834591197808556395e-01 -5.828240475691816302e-02 -3.460789835312044760e-01 -4.076699534818230553e-01 -8.402525612502212971e-01 -6.150759696940846233e-01 1.296154808997715957e-01 -2.190967865886583599e-01 -3.682055294370407683e-01 -2.163176199816961298e-01 -8.060217404654853590e-01 -2.865638413245713001e-01 -1.460525543751029984e-02 2.059391419251630495e+00 -9.165479317554697802e-02 4.554030685919609467e-01 -6.814599910196555976e-01 1.483568679171567650e+00 -5.334248086131609945e-01 2.384483460230485130e-01 -9.066051513463807554e-01 -1.128031136215800478e-01 1.439960314767193550e-01 -1.266491171557503570e+00 -2.726333471199786640e-01 -2.615981413094948041e-02 2.389740915019543943e-01 -3.945219067448161310e-01 -4.039508872144942364e-01 -1.535816950654199098e-01 -1.436915753667859841e+00 -3.911139248764473053e-01 -1.065828961828538590e+00 6.567737298957077030e-01 -2.803735066676994458e-01 -8.007705424768123414e-01 2.183775555838956550e-01 6.795103386938605716e-01 -1.395550967495634287e-01 -9.831772085208967393e-01 1.824877985597641791e-02 -4.897860129175850563e-01 -7.477587752399306176e-01 -8.042150415254053011e-03 2.943949214453570606e-01 -7.813765234054741160e-02 1.179626714553336092e-01 1.543129595746424609e+00 -2.227195187370167029e-01 -6.638262358334373614e-01 -1.401358512040746240e-01 -5.764854205188690850e-01 -2.498401406389913482e-01 -2.773001549516193598e-01 -4.144807329666860829e-01 -2.387670349904586486e-01 4.459315387184645263e-01 -5.013382643530869265e-01 -5.103734094281719980e-02 -1.060620657425999092e+00 1.678009542098073126e-01 -1.254652771851501925e+00 -2.003603401940518836e-01 1.053974672519647632e-01 -2.238596097429690346e-01 -3.456375415851640764e-01 -7.506362209559390708e-01 3.370380906478292332e-02 9.137899436422685095e-01 -6.273011457253636625e-01 -2.965184765761419983e-01 -7.022351268615513106e-03 1.698091237168622092e+00 8.132467450749029103e-01 4.630760153802496726e-01 -5.501657824648101824e-01 -2.846287708026011276e-01 -5.051456395689850609e-01 -1.925963392372943284e-01 -5.278709586357464012e-01 -8.611887624346393766e-01 3.122191438793355256e-01 -3.238237383530334079e-01 -1.451212941183511296e+00 4.059935335393899392e-01 -2.925761170614758488e-01 -2.087638755193257367e-01 6.131637218102549414e-02 -2.627029793322041562e-01 4.793464103820534172e-02 1.728395564489228486e-01 -6.018273249998070673e-01 -4.858433365589367309e-02 -3.907281023379362006e-01 4.958856862850421487e-01 -5.107339603594625022e-01 -3.372726197183803509e-02 -1.254728777674558871e-01 -7.758965080900939726e-02 -3.907312423105336330e-01 -8.470228157022750004e-01 -8.244892653330847532e-01 -5.667497527068617869e-01 -1.778376251174591804e-01 3.610506091773087456e-01 1.864038203463599608e+00 -3.123816197707033337e-01 1.328284487956630511e-01 -2.809110304348819698e-01 -3.819909898895706979e-01 4.618829078871778959e-01 3.199524898085038815e-01 9.761354783768030341e-01 -5.250085320166576058e-02 5.584374298459159336e-01 -7.602907567320731363e-01 -7.164079354680704670e-01 2.547270232712401383e-01 -9.675346806969935542e-01 1.013182116989403969e+00 -6.564679423911237710e-02 3.938372825998159854e-01 1.868336258402229777e-02 -3.300411789070937241e-01 -1.211781776454612797e-01 1.184796503507939969e+00 -3.089852763073552833e-01 -2.221930755878293307e-01 4.672664124146488213e-02 1.902331947167380799e-01 -4.777728218093421075e-01 -3.613030917032187816e-01 5.973325428882745314e-01 1.122941241237300075e-01 -3.251032204951492255e-01 -7.668720698375434131e-01 1.879988042432900297e+00 -6.449265131600897538e-01 -3.019740384577316861e-01 -1.082269986008785601e-01 -2.108522844017023390e-01 -2.839788998717989732e-01 2.728434561682177724e-04 4.073097463468134394e-01 -3.292039427030730714e-01 -1.737005454218460698e-01 1.635615452557257932e+00 -4.296269170494176337e-01 -2.378909870915069946e-01 3.134673530894867555e-01 -3.377554800193260376e-01 -1.967573619579594757e+00 1.408818222652317154e+00 5.548500930944882947e-02 -2.969409801794727910e-01 -2.910663396610629894e-01 -2.061497888833137559e-01 1.799868953105874692e+00 -3.934214659429436378e-01 -4.469064416439337273e-01 7.583992929191576415e-01 3.365252428890996936e-03 -3.902304675171041071e-01 4.489127602496894021e-01 -2.116292219577195488e-01 3.513900207493393657e-02 4.126638051880896496e-01 -1.747071292467745895e-01 -2.424890594559618584e-02 -3.632748537944728850e-01 -1.494785987982593656e-01 1.046973117850421853e-01 -4.726338940992548254e-01 2.532040049068057241e-01 -3.742288894819982281e-01 -7.297186870124614533e-01 -7.763686188001005517e-01 -1.413192161767699462e+00 -1.381008452073447246e-01 4.670089748433768617e-02 -1.353368265834307582e+00 3.203255644917831213e-01 -2.610015254948039320e-01 -6.225317013598103966e-01 -3.053141166665518935e-01 -6.027065545363358146e-01 -1.087291165669430626e+00 -5.307754362958274630e-01 8.677801296373980344e-01 2.035322464060331793e+00 8.962882185000410618e-02 -1.230875044422738429e-01 -1.170812416041329129e+00 1.801113188315456998e-02 -2.350835642357589073e-01 2.204684376720702776e-01 -7.062760503906740928e-01 1.423386572838869768e-01 3.300733230224070502e-01 -1.196591950395105686e+00 -3.234293247412881045e-01 -3.857223381621443514e-01 1.111451493085263420e-01 2.154563371846860975e-01 1.671426415590153425e-01 9.945473976901389457e-02 2.013860881272267755e-01 3.353610862714027224e-02 3.361192733765313023e-01 -1.924377144891220026e-01 -4.954931934478634670e-01 1.378281553001484694e-01 -6.759062663107830160e-02 -7.721161200811913483e-01 -5.037456274792909694e-01 -6.175423715641230604e-01 -2.393251537490979908e-01 1.818476533233696069e-01 -1.760281456374796383e+00 3.509664181422896823e-01 3.840877871616896200e-01 -3.525439635456096843e-01 -2.113259405844048200e-01 -3.478963693097636423e-01 2.683462317263930752e-02 -1.994552922657309435e-01 3.168930652121147440e-01 -2.266883515201767174e-01
-3.568991073063811359e-01 6.974166653363611523e-02 -2.377165697276524825e-01 -2.160697370398676209e-01 -4.546810234347014035e-01 -9.037720506400119813e-01 -2.300459202588120422e-01 -1.773424214605439919e-01 1.815454501911720475e-01 6.372494361590450573e-01 -1.158793174750732957e+00 -7.805385078057976989e-01 -2.069535511059246435e-01 4.176755164931330033e-01 -1.517113189712513688e-01 -1.060572172729451756e-01 -5.868458849626645435e-01 -3.286763211896162051e-01 -1.637701409747166770e-01 -2.066079362885393234e-01 -4.731369061580256163e-01 -5.520266144851868617e-01 -3.269399729082017592e-01 -5.233073940486684394e-01 -2.310166265367127325e-01 -1.836600490157584142e-01 -1.298683189227681778e-01 -8.966346431052119037e-02 1.132492620562039476e-01 1.672620674131124252e+00 -7.996912337575176610e-02 -2.470459788550160019e-01 3.548340639023887799e-02 9.674664968848305513e-01 -2.870870985895078165e-01 1.217607882065363384e-01 -7.876598751605782267e-01 -7.467112600262366673e-01 -2.841187559158703246e-01 -2.102566678265477496e+00 -2.417852682217233318e-01 -2.627010282815941400e-01 -4.779724145757011655e-01 -4.010466886897591232e-01 -5.545753674285881507e-01 -5.972631001247017402e-01 -5.118169406549532008e-01 -2.097679280775839872e-01 -4.622104447058094090e-01 -4.212993971243216285e-01 -5.257952542509781724e-01 -1.005715962583312723e-01 -1.177552683310712611e+00 -4.332824982374503670e-02 -1.063661693520208784e+00 -4.309474287184973385e-01 -9.563472268710104807e-01 -6.532834997776565400e-02 6.670758639025800574e-02 -2.565628799202542276e-01 -3.631174280518863484e-01 -1.155906110121960872e-01 -2.517208396485566824e-01 -1.472252954934807789e+00 -2.815496342575705691e-01 -6.349108060081444238e-01 -5.482592518740878607e-01 -2.421069650128265111e-02 -4.225017587035675426e-01 -3.790934297970486311e-01 -5.280906897845642073e-02 -2.152569914278535390e-01 -6.945614071099334152e-01 3.117895869957498234e-01 -1.052898117776992715e+00 1.186348063756943017e+00 -1.833864125148580437e-01 -6.542269241617660880e-01 1.517132131470297629e-01 -2.087465748214134553e-02 3.785951649985357798e-02 -7.920864205416100479e-02 6.778256058040695031e-02 -1.608856345222944850e-01 1.207980498576614270e+00 2.584371800970591160e+00 -1.457682883106378550e-02 -1.633690670419447322e-01 2.336275170916994603e-01 5.458906558591677394e-01 1.948353134578155732e+00 -6.487048716642281887e-01 3.410428897096805523e-01 -5.678239352906766513e-01 -2.262074184797915055e-01 -1.353660249103411095e-01 1.266612106748693289e+00 -3.105394101995379019e-01 -4.892606189665056338e-01 -4.080750325008178914e-01 1.352588431536298763e-01 -5.742731527713241801e-01 9.049537720884189007e-02 -4.360541031715835514e-01 6.089078982204519652e-02 8.484303187969897964e-02 1.598886195363327378e-01 -2.703698104291011872e-01 6.909342182355155022e-03 -8.619133986668211511e-01 2.626164362375250083e-01 -1.152991926304640424e+00 -3.038515885685885154e-01 -8.437283314372332477e-01 -7.558041195691354019e-01 -1.117223312750431352e-01 2.937808747986708421e-02 2.752059495430652508e-02 -6.239450987215523492e-01 3.967231136706323574e-02 -5.143612437152379480e-01 -1.484846780598172433e-01 -3.538444236748263805e-01 -3.609179215731537216e-01 1.383720931987513503e-01 2.416950466994545188e+00 -6.464478170352206954e-01 -6.577565401971369186e-01 -1.316915398994506770e-01 -4.852806239422071122e-01 -2.799724178793263074e-01 -5.537841549355319859e-02 -6.688618678570201759e-01 -7.610299574037615589e-01 -2.027131204531216202e-01 2.936646687487873830e-01 3.183065267740089466e-01 -2.780958992108530370e-01 1.899965962758277671e-01 -2.647176514649015600e-01 -1.356729160189001471e+00 -1.985570795689448331e-01 -6.372986735672006575e-02 -6.400036853818066307e-01 -1.374671963803555108e-01 -5.721803054801403998e-02 1.590567414412898117e-01 7.418769034698788900e-01 -6.945241270563481950e-02 -9.095146295583631524e-01 6.087413662912053436e-01 -4.464313251533158500e-01 9.741301083102097205e-03 6.272385563222853122e-01 1.494736897410227361e-01 -1.031726297796698555e+00 -9.942737544348179135e-01 -2.561643489780986438e-01 -9.709174871534177742e-02 -4.605489478551469396e-01 -2.122919047310821428e-01 -1.543362065961061624e+00 5.554050207633347558e-01 6.057229882782874109e-01 1.720889245338609597e-01 -2.365630651723923950e-01 -5.207733414411559458e-01 -6.221517450868336851e-01 1.702491418714647819e-01 -8.146228077616900487e-01 -1.415049947284578169e-01 -5.687593248894391440e-01 -1.781246756154541977e-01 -7.174544997712407890e-02 -3.861685180130127737e-01 -8.431976394284478316e-01 -1.069621466660150011e-01 -6.729366558984182234e-01 -3.651292516501058460e-01 2.397388686467818303e-02 1.616587043336647003e-02 -7.843501631169594868e-01 -9.415728379794739700e-02 -3.298652651772857602e-01 -2.732370644599176890e-01 2.143007423654621699e-02 -2.965893168454357021e+00 -1.182613424536923113e-01 5.082589391174938687e-01 3.798381230577388412e-01 -3.135799712230728092e-02 1.307197749395738962e+00 1.457989064198617624e-01 -8.972485327336043870e-02 -3.739597263324420662e-01 -4.232986133456888567e-01 -1.902377574578032748e-01 -3.258371333331004371e-01 -3.251355665812267759e-01 -1.473894259077381808e-01 -6.057369626266052576e-01 -1.075446499741468248e-01 4.884806447165337961e-01 -6.551256763970129959e-02 1.364617196202051908e+00 -7.586069926652854178e-01 4.305879173904110513e-02 2.042936683780609830e-01 2.831545808861546387e-01 -6.361355222900408335e-02 -1.193698954734051104e-01 5.395680666230417977e-01 -9.343851626145178724e-01 -5.731178577499018711e-02 -3.552350753657856353e-01 -2.382790061178002849e-02 -6.007363796761641117e-01 -5.864034966842286423e-01 -1.405571274390413072e-01 1.457007716477308534e+00 -6.876357433968373345e-02 -4.053072579264567210e-01 -3.217795580965847335e-03 4.685448937680564141e-01 -5.388756937377261469e-01 1.295266360335928235e-01 -1.384526969032053856e-01 -6.321010387671140984e-01 1.081901555733625064e-01 -1.428315072766650762e-01 -6.587456042838757408e-01 -6.713467899666751837e-01 -2.311120166305560719e+00 -1.872258653877252599e-01 -1.223648446139912471e-01 -1.352433122464216479e-02 -4.682231007314223148e-01 4.037882937121772264e-01 1.122527938554117810e+00 2.835239409197747307e-01 -6.260888449897166197e-01 -1.643672186807136060e-01 -8.661405612025106782e-02 -6.556024064465793000e-01 -5.767239007933203966e-03 2.170603699663908426e+00 4.691586541418224510e-02 -2.643339702655790879e-01 1.291129910906786693e-01 -2.959380894367349968e-01 3.455588648901286031e-01 -4.445858909847027474e-01 -1.076968941395476831e+00 -2.935756577012307300e-01 1.368280513713122093e-01 -7.311718289702451301e-02 1.687289166067575952e-01 2.037567529537465671e-01 -1.905044288047040568e-01 -1.175958915662418391e+00 -1.485261739057280594e-01 -2.810922255940689896e-01 -5.658234411731828395e-01 -8.215852075710643465e-01 -1.715544937465954822e-01 9.414612189838001050e-05 -1.736159245832256115e-01 -2.045658694598459504e-01 -1.814662796805145140e-01 -3.464105923427384659e-01 -1.527778920788900763e+00 9.942049760415920534e-02 -1.383270556192826850e-01 -5.253050560008375447e-01 -1.470619325021369272e+00 -4.096423450863062588e-01 -6.715470654348072443e-01 -6.418827782215835720e-01 -7.466484191397337877e-03 1.830046882236523731e-01 -1.017073969270506861e+00 -1.906235126926594248e-01 1.560338734629724833e-01 1.007348267214104753e+00 1.400290355690564925e-01 -5.774613665945472762e-01 -3.000741685070172915e-01 -1.777126254899352720e-01 -9.222118296014835126e-01 6.709835058898133697e-02 -3.615189734504773988e-01 1.364607879000482304e+00 -4.050817495744886421e-02 -5.013033647836413059e-02 -8.800380390673384623e-01 -9.073241952573541935e-01 -1.465672683481641092e-01 6.139019390417396194e-01 1.028215242776349542e-01 -1.221342087795283804e-01 -2.736425745695247325e-01 3.201292256027009064e-01 -7.282678898210998009e-01 -5.844909732001087876e-01 2.165737180727188849e-01 -4.114067283134760777e-01 -7.033972331706284109e-02 -6.176760195835617751e-01 4.683777409718999363e-01 -3.931991324217053857e-02 4.818998335786795623e-02 -4.594572726892112158e-01 -9.002286722176956746e-02 -2.598959982528235568e-01 -8.148266120506210408e-02 -7.965004516004557666e-02 -3.289950288995617256e-01 9.384967232503143020e-01 -6.052483187547446075e-01 -2.231975757498442792e-01 -3.099802114930870836e-02 -3.710937197649398223e-01 -1.881872832549037755e-01 -1.566267180582838758e-01 -5.704910391804809411e-01 -1.889865930630017510e-01 -2.193642115411531812e-01 -3.881263750013285718e-01 -2.791965316123980467e-01 -2.631062754323043040e-01 -1.633823606054313760e-01 -5.712214059578115677e-01 3.151657060771595464e-01 -2.188851416052450538e-01 1.340575081155934267e+00 -2.049596738874448487e-01 2.740030447422678317e-01 -1.206017007228478821e+00 -1.617077933642569465e-01 8.244471292524264971e-02 -3.741107501464022156e-01 -1.300964465615749577e-01 -2.373452005568159051e-01 1.878307252149386541e-01 -3.798838072274595135e-01 4.696286860351979453e-02 1.756830694813169835e-01 -5.672539312319748728e-01 1.595612949638461342e-02 1.856081509962825282e-01 2.621473473880803207e-01 -1.321053144838044480e+00 -3.552726134945384806e-01 -7.855801173126377712e-01 -5.566091593253371661e-01 -4.566850748693893625e-01 -7.792483933258401718e-01 -2.822193288438594738e-01 -2.201200728273713936e-01 -1.878753130838057561e-01 -2.801095332088850420e-01 -4.993132574846230742e-01 -3.902647898646341984e-01 -1.235180575278201770e-01 4.226117788535024150e-02 -6.529905523222353514e-01 -4.080466774695094556e-01 2.956176500045748501e-02 -1.817483577509781678e-01 -1.799768973316407394e-01 -3.477330538321190545e-01 3.062990879864359584e-01 -3.557439243479967317e-01 -4.433690488049837342e-01 -3.689155180797114020e-01 1.051093684187870414e-01 -1.985416797725601812e-01 -4.518887597657389454e-01 8.892829181808954431e-01 -2.484976973414418089e-01 1.052443016483215893e-01 -8.952788782986899341e-02 7.399169739875750829e-02 -2.779613295395170769e-01 3.218221112363919834e-02 -7.864252586030844316e-01 5.675621152871724862e-01 -3.985673373414609921e-01 5.541832105287477495e-01 -6.369792847503104039e-01 -2.176983108064910466e-01 -2.061487552947914581e-01 8.572854161993702371e-02 9.829490753508371426e-02 -3.993609662768870527e-01 -3.534273125883428124e-01 -4.417341216857014197e-01 -1.293145794642765800e+00 -3.881394463962825614e-02 2.906386481107980577e-02 -6.418834953383765196e-01 -9.237467435161750284e-02 -6.392787063282596716e-01 -7.925002382842029069e-01 7.662026737297569778e-02 3.005527929553262756e-01 1.363572672555227183e-01 6.890185288796872864e-01 3.689850321374859576e-01 -3.181514420702580281e-01 -9.691081998774261907e-02 4.794015910591272744e-01 -2.241359104675712810e-01 9.763551520907244319e-01 -2.742524880740102589e-01 -1.964720659786824836e-02 -9.995281166936403894e-01 -2.765999535358687478e-01 -4.422432336512321233e-02 -3.418225000941783054e-01 -6.012624114174330847e-02 6.614207354966079588e-01 2.792055239575511827e+00 -3.243736560008930181e-01 -5.202014793075491195e-01 -3.706993333902983134e-01 7.570139129445069281e-01 2.585215007010686211e-02 2.840987473306241795e-01 -5.554095240148268671e-03 -2.248953214466728190e-01 -6.096552292787181804e-01 -3.239486043048675490e-01 1.683974516421611056e-01 9.057135096785420836e-02 -1.925884942363184638e-01 -9.037571276803965659e-02 -6.660461099389961004e-03 3.313449876104763991e-02 -1.276115546201313788e-01 -4.210439696813736976e-01 -3.024452901404061089e-01 -2.244424227492965856e-02 -4.111258745117494229e-01 -2.275329821489454618e-01 -5.102181491484592685e-02 -3.923195436942150671e-01 3.219252923792600973e-02 -4.368540937410850256e-02 -3.197604985056561322e-01 1.469368475550208476e-02 -8.855162778639010801e-01 6.944747587961709323e-01 -6.904282240044926633e-01 5.144760805173603790e-02 -3.050039191804407857e-01 -2.275297800557784245e-01 1.673500035850370216e+00 -5.017923215652667635e-01 -1.749576014171338179e-01 -1.976869637856789319e-01 1.515829996603365037e-01 -7.489813895602946692e-02 1.679326564352378592e-01 -3.497308095037225395e-01 3.505824445266555317e-02 -1.289986242490520352e-01 1.063259237767363447e-01 -1.436853724499201346e-01 -3.321583354409888278e-01 -3.164158923945523116e-01 -1.890304451683482434e-01 -3.266630228737173458e-01 -1.351406913507477159e-01 -3.740580966479478686e-01 1.593636369846079814e-01 -6.235571324128604820e-01 -9.623857178497992326e-02 -2.737725213440427852e-01 2.179400283036310101e-02 4.672563297349922595e-01 1.874344122766287590e+00 -1.187976830285287361e-01 8.403852914454134071e-01 -6.780427560878532489e-01 -3.183406888507103738e-01 -1.168101199055066930e+00 -4.578028482778451758e-01 -5.219143550880213089e-01 -5.675248584035986754e-01 4.516866104095632051e-01 -3.725700759714608568e-01 7.591673048491412445e-03 -4.148185957668698021e-01 -5.395686339488744293e-02 -3.262931529430245781e-01 -9.708661234838650289e-01 2.068661181166484009e-01 -2.597267129660588147e-01 -3.420520826615754961e-01 5.791350188880263483e-02 6.642191696333213380e-02 -1.153666178140487775e-01 -1.830986435874785156e-01 -1.498914211392605944e+00 9.995389556292083588e-02 -2.718974356068429854e-01 -2.259854917348773640e-01 1.334471265824909159e-01 -4.357480920094468635e-01 -2.653683582575356859e-01 2.687270480514539206e-01 -7.142742479393509036e-01 -8.818335288952950934e-01 -1.785077324448788583e-01 -1.795184242767056793e+00 -5.058341001806168080e-01 -1.463121403514822949e-01 -7.323777655245988782e-01 1.504563868495050638e+00 -3.196821633261202056e-01 -2.313435300528085270e-01 -8.288728948430239274e-02
6.398018537856680066e-01 1.265135425967284510e-01 -5.030292709103954124e-02 -3.122622090042270759e-01 -1.684598943907393009e-01 -1.507271768119641253e-01 -1.157944551242070241e-01 3.623635426314222863e-02 -2.334288858117773424e-01 5.715142563107159512e-01 -2.766548253493568421e-02 1.777461384219162444e+00 1.537467149505168607e+00 3.290890243798334502e-01 3.795783246292768753e-01 1.104526947749204568e+00 -7.561511843463386562e-01 4.722495297434935457e-01 -1.420376923621702592e-01 -3.739413590490111433e-02 -3.201571767525968060e-01 -4.162670604146720410e-01 2.986396220042732419e-01 -7.045676143230517052e-02 1.713360129591728676e+00 -2.970360256838003310e-02 3.635733913534645589e-01 1.573515684984452045e+00 -8.920712949113955847e-01 -3.965543817932051796e-01 4.090875757313070515e-01 -5.274646709828262336e-01 1.763772793172133785e-02 -2.534049422466024826e-01 -2.891942878552023269e-02 1.314415147304344444e-01 -3.191301531878619757e-01 -1.118605898788387787e+00 3.516712713423535419e-01 -9.652917590531945313e-01 2.138624037165856584e-01 1.724808482972742252e-01 -5.515865635189004523e-01 -4.091194361154266157e-01 9.140504496319952488e-02 2.464071327445131465e-01 -2.604136667110396042e-02 -2.524489421328717786e-01 2.594669690371306792e-01 8.397898139746201585e-02 -5.747601465310592239e-01 1.476916479795745973e-01 -1.174167671409261926e+00 -3.190952836529997727e-01 1.105015351945490165e+00 6.062413696405455354e-02 2.442971910013317094e-01 -4.109953577030474037e-01 2.369016007298453130e-01 2.750202029874986298e-01 2.002458029985246246e-02 -1.451043734412996444e-01 2.431746344010256855e-01 -4.695561215934880850e-01 7.549354337554288197e-01 -4.016043580493149912e-01 -5.478629210152301532e-01 3.097925783014435219e-01 -6.224561284691254581e-01 4.379590418180059203e-02 -5.031550277589503378e-02 -2.617674593757412516e-01 3.567914237962770407e-01 -6.091887223364814696e-01 5.499110785893054354e-01 1.496388437226923163e-01 2.385046963178514071e-02 7.831276666695865529e-01 1.463228489495136952e-01 -3.621136440880743379e-01 -1.641696274550452361e-01 -5.199348351500707732e-01 -4.750328453471331924e-01 9.962824646866940137e-01 -9.210354126307955802e-01 2.114909573984578295e-01 -4.090856533630703451e-01 5.306863821241517010e-02 1.652221857752131373e-01 -3.550189587404590785e-01 -4.800883430386037598e-01 6.182520108631205380e-01 -3.596750958373576834e-01 2.023171929628985177e-01 4.950085664860920560e-03 2.926673280332775517e-01 1.574728113615493585e+00 4.908556811975581802e-01 -2.254558906186564793e-01 -2.806327398298420484e-01 -5.581150191180587333e-02 2.102901108310766265e+00 -4.849320856692572734e-01 -1.545225900457218582e-02 6.304566566724503218e-01 -7.833728406777663578e-01 6.251197170559626981e-01 -6.453495258140388158e-01 -2.073420629808382376e-01 1.650710919340680594e+00 1.147522274955193655e+00 1.251389626773795893e-01 8.327258865116454745e-02 -2.996479048097714371e-01 4.396881038950364862e-01 -1.507309806817766218e-01 4.224306104897735392e-01 8.894393073042409226e-01 -1.967632595698441400e-01 -9.088743820035861953e-02 1.072482573635669789e+00 -4.593565527132499882e-01 -2.719027952042579743e-01 -5.235622015807912533e-01 -3.549311173183963136e-02 2.061397321042907349e-01 -9.954648680948796624e-02 4.496409653868725931e-01 4.909867926494722035e-01 -1.127171270175703482e-01 -4.674406833960914054e-01 8.281390947292558216e-03 6.714171533109412893e-02 -1.166831759098551080e+00 -2.509238403381419125e-01 -9.800900261164620098e-01 -4.156411674493635383e-02 1.674642840388617382e-01 1.360845277705248491e-01 -1.630448045678181412e-01 1.187250212362995105e+00 4.876976330941820148e-01 -1.522645385320693934e-01 1.678334968525430071e+00 3.435277208602189880e-01 -4.945545742039276216e-01 -4.970661398808596809e-01 -3.502209722099039468e-01 -3.568287592280663945e-01 7.207069633882607906e-01 1.864316284654048694e-01 -4.886837572129308915e-01 -7.514972607238390445e-02 -8.523953561218322594e-01 -6.694699728970965324e-01 8.727723962125654156e-01 -2.565033708157602454e-01 -3.518474978109185081e-01 -8.384557653204858241e-01 4.227186407210160035e-01 -2.505014951598889539e-01 -1.749048713802324184e-01 3.916825831179236994e-01 -1.050288747210820356e-01 -8.340489855596975310e-01 1.082852126865237602e-01 -5.973153051177286510e-02 -3.040832081455147051e-01 -1.402704630247984641e+00 -1.287504561078642862e-01 -4.837517134665914598e-01 -2.522727512370709357e-01 -3.743225284328340341e-01 -4.316161265903799005e-01 -2.281900479857565944e-01 6.370096911628386760e-01 -1.544909888123196726e-02 -3.956332562563479316e-01 5.861013154474865594e-01 -8.183600868428786423e-02 -2.717543145771900495e-02 8.088498315368601865e-01 -8.138749640816388131e-02 4.031613213817098473e-01 -2.378512875741035093e-01 -5.076927498383986270e-01 -8.467599765868037975e-01 1.511073349643890784e-01 8.387309230105282065e-01 -2.209720507650945465e-01 1.759633968687165650e-01 -4.124056570949193312e-01 -4.212918460765880391e-01 1.130053920413648105e-01 2.635585981083650164e-01 3.078614428372078438e-01 -1.918876376104567891e-02 4.723202157579162175e-01 -4.393998633716632574e-01 2.706892838448070049e-01 -5.298073816416742216e-02 -1.399160632154373973e-01 -5.055585875138811636e-01 1.201289153878004057e-01 3.977700352031198761e-01 4.561250481553537697e-03 5.665883712005710671e-02 -2.721353718949822142e-01 -7.961792808186177184e-02 -4.234002064042265145e-02 -1.123676287682764778e-02 1.198014378011583031e-01 -2.251154983151310018e-01 -2.957547082258958349e-01 -6.063790825859404210e-01 1.250076384299222687e-01 -6.565698885259936279e-01 -2.307741425339217833e-01 4.542160032938332148e-01 1.359684864868293541e-01 -9.738948262458674288e-01 -8.337838327152645723e-01 -9.762317971236811331e-01 -1.247889766219407864e-01 -3.261752279762006324e-01 4.547608039704998939e-01 -2.087311872172010474e-01 -7.661319648766863610e-02 -3.198894699188319785e-02 1.012287314944762401e-01 -7.438446662972820755e-01 -4.246727478633353092e-01 2.356576661883537718e-02 2.412815366080450219e-01 2.342670064777821470e-01 -1.406431533156504154e-01 1.293853473966267043e+00 -9.883130860930235129e-02 -2.053125839174265999e-01 -2.973976947185975606e-01 -8.492381287754530508e-03 -1.323785230309228456e-01 -1.026612806906736397e+00 1.503538884496969374e-01 -1.074840536804639868e-01 2.301627322130787023e-01 -2.099080362910225594e-01 -2.596944477529203321e-02 -2.506428020006699620e-01 -1.541301387831084668e-01 -8.389963397740214657e-02 3.665020633290989038e-01 -3.591673928430240137e-01 1.375418506583153955e-01 -1.104175611661641909e-01 5.411889193721216573e-01 2.040874271131694617e-01 -1.243924024275632444e-02 4.226363062860715170e-01 4.838708009845247848e-01 -1.904617190490858758e-01 -2.213770661610876822e-01 3.716698792152894892e-01 -1.393729817361353929e+00 -8.084836558314705268e-01 -1.361017405793160107e-01 7.581889310058449460e-01 1.499129865935519001e+00 -2.554419113350508974e-01 -5.749608804867145651e-01 -4.292302064842986598e-01 1.203809507557394021e+00 -3.892463898319322158e-01 -6.112741144727485976e-01 4.125235482012386545e-01 1.167982169752041222e-01 6.967438551196832863e-01 6.422833744878837514e-01 -1.390987431513005523e-01 -1.571418886623906497e+00 1.246854038588563585e+00 -2.679991394541058614e-01 -2.306975194060477130e-01 1.185066700513991295e-01 2.317468661602750390e-01 -1.730018948145158442e+00 3.519125558515332625e-02 -1.011847732108461378e-01 -2.086396239555070864e-01 -4.335982790763137640e-01 -6.420252275608215875e-01 -1.112214442037605444e+00 -1.286249297442761508e+00 1.804947627559566614e+00 2.964707203659953660e-01 5.147054442220404535e-01 -9.617576805012655050e-02 8.895412204516482679e-02 -3.098116110715296023e-01 -4.013777889474728355e-01 3.077860208351256843e-01 1.682131328165000494e-01 1.326372854678005420e-01 -2.810409447529760296e-01 -6.991504590080631354e-02 3.548679109427848588e-01 -1.265911159184687218e-01 1.488783348526998007e-01 -9.232603676588581054e-01 -4.002324966792100147e-01 -6.048351152263017338e-01 2.998113641244037897e-01 -1.052091215800961876e+00 -2.466356851987648244e-02 4.791127097992965711e-02 5.231802022486350401e-01 -1.198150382311259782e-01 -4.166525512424715944e-02 -4.089971893672241787e-01 4.319869395877821150e-01 3.624427568495225405e-02 -4.608194757543447873e-01 1.408248897302471769e-01 1.723150206249929040e-01 4.132534372000686539e-03 -4.288451499460060323e-01 -1.632109200776983016e-01 -9.489226661813134900e-01 1.891888904144703176e-01 1.427227093346210840e-01 2.677674571214992000e-02 -8.121215991935991363e-02 -1.892720681378407876e+00 1.360769761957649759e-01 -1.142497031207143854e+00 -3.579941024040593778e-01 3.704247502959847060e-01 2.447457561298481465e+00 1.551440617070395933e-01 -1.848950321965019961e-01 -1.587033294980840226e-01 -1.629154390092753812e-01 5.685725980141926872e-01 -1.852294163785967451e-01 1.347206703882741219e-01 -2.762192486597486174e-01 1.419763585035738185e-01 3.534078338699503385e-01 -5.658342788681428592e-01 8.997824115970061432e-02 -4.800513841701638529e-01 9.914302856831055388e-01 2.910274748618889573e-01 -7.606267894437799271e-01 -1.292434705116187965e+00 -3.868207684869778840e-01 1.594887476829685902e+00 -1.279864768149175658e-01 1.855617757695637859e-01 -2.973725491300038826e-01 2.953368948144464295e-02 -1.257332658935445165e-02 -5.113289130037325103e-01 -1.307336556207914446e+00 -3.578908519482462136e-01 -5.057918720983225341e-02 -4.393996023166217048e-03 -1.565329490690639869e+00 -6.248868339243488501e-01 1.284160290836864782e+00 -1.554176871941095606e-01 -3.287823831342766567e-01 3.941847328628173691e-02 5.706586580337032893e-02 4.943988813296713580e-01 6.552527093388295087e-01 4.528624353800508873e-02 -3.543278315310702808e-01 1.794488854028091662e+00 7.239107947098187834e-01 4.663440373791650773e-01 -3.097705448873033784e-01 -3.427174493530242838e-01 -5.301761668975100289e-02 -3.296003377171549120e-01 -6.275063403627126890e-01 2.846923584195804602e-01 3.000894414439236324e-01 -2.141003351219164241e-01 -1.222236881581101331e+00 6.179934321151216992e-01 2.812835971857896578e-01 -1.519759497228432843e-01 -1.254134503535523082e-01 2.680768331109317781e-01 -1.157403507587361491e-01 -1.141060940278243230e+00 6.266638004757093539e-01 1.756425305297719952e-01 1.282932274997911626e-01 -4.583687828735755199e-01 -7.745560660652917040e-01 2.363166410825768282e-01 -3.924403942058898309e-01 -3.355585370942899132e-02 -5.085259197461744485e-01 3.342830923276186028e-01 8.262368740065675343e-01 2.944129144671323028e-02 -3.329686229255973129e-01 1.583451283290706613e-01 1.229044248440293585e-01 -1.102801614429868571e-01 5.343413552689550983e-01 2.793309447471759577e-01 -2.739247595589734963e-01 -7.101177593264963450e-01 -3.290270972082206535e-01 -4.516326388501117894e-01 -5.559845800469249699e-01 -9.154600315892139628e-01 1.065049576167582945e-01 -6.044597499437570631e-01 -2.819580420400967236e-01 -8.198437836819248703e-02 4.035785294585810257e-01 -1.085776184201438621e+00 5.452745027860880778e-02 -6.262694401655110044e-01 1.633430311757280984e-01 1.809355200667434493e+00 2.010884830187479100e+00 1.271643894082310211e-01 -2.076912908848276562e-01 -1.941800599751753176e-01 -4.549988879328837332e-01 -7.426234594476538442e-01 3.098489088138596803e-01 1.617516729912249762e-01 -7.994849476427268176e-02 1.566687123727647513e-02 -2.446010822342147062e+00 -3.219918278175062376e-01 -1.324556024133222154e-01 -7.372404831539528525e-01 -1.059989376165544478e-01 -8.260007246826407412e-01 6.554612414283557120e-01 -3.156397176635495350e-01 1.014370102912051541e+00 -1.499962170191177224e-01 6.026841322130744860e-01 -4.540952845288918627e-01 4.139198944737224051e-02 2.049634074776691683e-01 -7.827101789439734336e-01 -4.664248786470403529e-01 -1.665244490434053537e-02 -1.645055880980693663e-01 -2.537384327380904359e-01 3.421568125392476234e-01 -7.134175304136432250e-02 5.257226952147373567e-01 1.604277696958954780e-01 1.598849795570577992e-01 -5.094263850622686718e-01 -2.836639955442708527e-01 -2.297941520770430124e-01 -5.364223736945431670e-02 4.533088875031716231e-02 2.049682033987873186e+00 -2.660935533898184380e-01 7.125486961656718465e-01 -6.214180636616311454e-02 -9.342075540653870247e-01 -1.317623158758074800e-02 -5.512856860092472250e-02 -3.535783693549742618e-02 -6.752637717674686568e-01 2.313537031306483749e-01 -2.301274239640886676e-01 -9.345634050292085382e-01 2.408549060348952331e-01 6.082746627198880596e-01 -1.131597918427648342e+00 2.142878245942050341e-01 -3.522322920152924919e-01 1.580426091280637158e+00 -4.053952929890302648e-01 -2.043911885775925308e-01 3.649859536112760039e-01 4.866668704426177494e-01 -2.886378509559817118e-01 -3.010907304626304556e-02 -5.290372256642541515e-01 3.105303458285029183e-01 2.819711122461058816e-01 -1.892223347174013318e-02 1.439431131122005658e-01 -1.112679622391409776e-03 -2.223001650624802095e-01 1.265743018628344929e+00 -1.768718369346931052e-01 2.506846253237551836e-01 -5.609477718470338159e-01 1.431108960431027033e-01 -3.034703729737541281e-02 3.537141000238397393e-01 1.005508239023099326e-01 1.265709250530827334e-01 4.690923630434488678e-01 -4.745376582279680067e-01 -1.522697268916796132e+00 2.447342603322319565e+00 -3.276579374050820892e-01 3.185483052236588036e-02 2.107421969763315917e-01 -2.799844889046791963e-01 -1.234681100709809076e-01 -2.072039512300341002e-01 3.712750707207582712e-01 -4.705010469189603757e-04 -1.142327914046940562e-01
-1.408562624563606702e+00 -6.605408627179589764e-01 5.202624045149496085e-02 2.468566374918221007e-01 2.301775731784471146e-01 -2.380190838612563087e-01 6.195079251013032584e-01 -3.747831782379175691e-01 -2.849201696410499571e-02 2.981393527376147157e-02 -1.311078891519720790e-01 1.181292888466192181e+00 -1.196279050322502646e-01 -4.590692267895158940e-01 -1.433120577342219537e-01 -2.576976520689988059e-01 7.374873698652051335e-02 -3.675687964490101378e-01 -5.701929680672531697e-01 -1.470093398620452019e-01 -1.174381356298593304e-01 -1.826684265651485617e-01 1.817555199478129713e-01 8.665089274207361802e-02 4.066969343321052421e-01 -1.137009621650286739e+00 -2.053141810074745333e-01 -1.698622278359900539e+00 -2.835809452769286754e-01 -3.762359190340700543e-01 -6.993499448649971306e-01 3.427325249389381878e-01 -1.513600835131561489e-02 -3.775115525480823853e-01 -2.161041090304177681e-01 -1.892000443756316763e-01 -5.374017090666163288e-01 -8.235836566503911271e-01 1.158104920649423442e-01 -3.213587755294110004e-01 -4.807483903614468423e-01 -1.916063960296174595e-01 -7.777532938899065496e-01 4.000963722493530716e-01 1.299533521170643580e+00 -7.165504462602534375e-02 -4.965435426211702308e-01 2.119548962828197436e-01 -7.907577006755264204e-01 1.124080558333786645e-01 9.368790065841607895e-01 3.831887889533622804e-01 -5.243344936809370971e-01 -5.140343293200321240e-01 -2.303806158980319929e-01 6.592759093680972127e-02 -1.913071854024260832e-01 2.692083615243302530e-01 -6.534129855862128577e-01 -7.152201723400619660e-02 -4.957158359260179226e-01 4.877268988340266453e-01 3.937967855118944538e-01 2.079598012795663031e+00 -4.749647632809048114e-01 3.222038414665005512e-01 1.264731591049451431e+00 -6.319908308814601305e-01 -5.327329912132039436e-01 -3.949413892857613351e-01 5.563191548467865538e-02 1.655983023124569381e-02 -1.829117467790480900e-01 1.712284576078764720e-01 -4.877904482056021583e-03 -2.397851234543119797e-02 -1.801743132673583048e-01 -5.414130579925967579e-01 1.420288201228617486e-01 -3.613285765398494553e-01 -2.279774820505132416e-01 -4.071120203089993450e-01 8.049202786533790621e-02 -3.983975362857453129e-01 4.796592212406971534e-01 -2.617809305269985232e-01 -4.271716920013221563e-01 -2.664327656742545777e-02 -2.582934690025305846e-01 -1.307957374397437644e-01 -8.177069332456761153e-01 1.774123561098497337e-01 -7.494221623216524852e-01 -6.656071988803998751e-01 -5.704237500272308914e-01 -5.037223792371839926e-01 -1.887370478280783415e+00 4.106169347980518913e-01 -2.083355573834511365e-01 -6.795387329784858821e-01 -3.978183906727995600e-01 -1.546652401949054623e-01 -8.879939635225578623e-03 -4.087451704922747675e-01 -9.968991415625356733e-01 -2.109580180318196552e-01 -1.263215052889138601e+00 3.224392574258816424e-02 -2.624283117388018227e-01 -1.708293641249216455e+00 -6.968144604810495857e-02 -1.181361942867441339e+00 1.068339251981966082e-01 -2.548077027658979254e-01 4.372296793566427531e-01 -2.518529279711494429e-01 -3.966975536952264680e-01 -2.633489427613733280e-01 -1.583218209319170733e-01 -1.092581420709648754e-01 1.688102731496951558e-01 3.963043709805355586e-02 -1.446956472488731549e-01 8.769338967755065106e-02 2.889075098416676868e-01 -3.476531838060277768e-01 -3.023633794681838127e-01 -3.846634549268406755e-01 -1.062508569927901103e+00 -1.179457923720189927e-01 -3.508548918626132607e-01 -7.655183590487016354e-02 3.480828294436442150e-01 1.737181013978734978e-01 1.344326793777055051e-01 9.119358474942115822e-02 -3.507269052519048080e-01 -4.355077432489781741e-01 -3.703579004917222917e-01 -2.656059904066286337e-01 2.876191889781443134e-01 -2.190193128754645557e-01 -2.101673237616319134e-01 -4.691501514988868360e-01 -7.048830110274836858e-02 4.466641955570855443e-02 -5.178272116289290850e-01 3.998820667504217052e-01 -2.771593441679165437e-01 1.634671557594494229e-02 -3.570168400147996079e-01 2.126043392500864548e-01 -4.072035760416837374e-02 -7.627032356909195787e-01 -3.277548236774638357e-01 -1.644389702496164452e+00 -5.186771119745265946e-01 8.477355428075321608e-01 -2.131564051041051622e-01 2.306276192860682861e-01 -1.888466057187924152e-01 1.344502261160041234e+00 -5.832882530852359082e-01 -6.638520632924747034e-01 -2.254292092907580758e-01 -1.597114755661950200e-02 -5.192076876954984099e-01 1.565540284289931861e-01 -1.384070977709807027e-01 -3.209681794174861769e-01 -1.089237015100515737e+00 -2.264550171644405183e-02 -2.395243697781201941e-01 -2.397750333912574139e-01 -3.039523894116679115e-01 -6.914223501951255457e-02 2.320516317106257886e-01 1.512672217525275753e-01 -3.255031643993237019e-03 -3.048343948563265182e-01 -1.171964485953723017e-01 2.185478906018210321e-01 2.200177348831427460e-01 -5.724086784129519545e-01 -4.513756495926086187e-01 -4.379084789942163658e-01 -1.040416997650041919e+00 -2.994525552159449933e-01 3.933266853174466338e-02 1.929955844123323050e-01 1.808459294606243606e-01 -2.162456132210488213e-01 2.425030604816513224e-01 -2.662184334599860813e-01 -1.200172140625133332e+00 1.661051744203882796e+00 5.055231686749743769e-01 3.208077169654964811e-01 8.814364915398338607e-02 4.129439278050692219e-02 -1.120745070697570234e-01 -8.818370972654789031e-02 4.363649660530539709e-01 -1.785999202994906776e-01 -9.459923614972094441e-01 -3.592951910998813669e-02 3.065266315489780791e-01 -1.374125917831499288e+00 -1.968994196140161912e-01 -2.712935811503281447e-01 -4.230085885199891815e-01 -1.004499174444613452e+00 -1.224765504356127632e+00 -8.072967207371569906e-03 -2.885975806751818751e-01 1.132577373547539873e-01 -4.042943779635654322e-01 4.856481469371405624e-02 5.741694130053538736e-02 -2.549565538665485298e-01 -1.305493384103872945e-01 -1.592770102749268835e-01 4.201761623303065241e-01 3.598607752703120166e-01 -3.714046347581317908e-01 -4.313707253292605737e-01 -4.625802726595582559e-01 2.972809582243801652e-01 -2.576292142984267231e-01 -2.790894862594332088e-02 -2.243226291257218591e-02 -4.270353949236271318e-01 -1.237184425327212178e+00 1.715978525471927585e-01 1.052371100131272710e-03 -4.991740758636156045e-02 -3.961350564316193368e-02 -5.027836026034070427e-01 -9.679627401949193466e-01 -9.914709132994979635e-02 3.924307735841399691e-01 1.653349222499647109e-01 -8.159733064776216738e-01 -2.545860831886318509e-01 9.117221292986250891e-02 -4.885220814420392355e-01 -3.550450751148765960e-01 -6.521542177183886624e-01 -1.794991738120760294e-01 2.823944910923557039e-01 3.983087209747123575e-02 -1.562334184073536913e-02 -3.903489447765725595e-01 8.298915812957122218e-02 -3.279021000992933810e-01 -7.132736689925978091e-01 2.286527548302919877e-01 -1.414249596855761126e-01 -2.255494150122932528e-01 -6.593365048066780476e-01 -9.749083324407881168e-02 -6.537137570976280232e-01 -8.373795473409685608e-02 -7.759808602510883668e-01 3.240871241607855557e-01 -3.196211826397201555e-03 1.690337019122663542e-01 1.438968053446958217e+00 -1.159035610212111322e-01 -4.784721336794841018e-01 3.594385762736455603e-01 -1.262146404269296029e+00 4.862927885521318300e-02 2.208179498248167005e-01 -1.746423218971462132e+00 7.018115065709708278e-02 -1.798021452571623158e-01 -2.702044146276515457e-01 1.242566836336154584e-01 -8.935703434020364488e-01 -1.275638775885426845e+00 -4.946955407394628135e-01 -1.931768538127218715e-01 -1.745431017408821894e+00 1.090461721205884527e-01 6.185861643982583091e-01 -5.109635906209830658e-02 -2.963739972644272025e-01 3.250507948795303137e-02 4.840346303875728284e-01 -1.598487017195716064e-01 1.157434203237411863e+00 3.964744106311804406e-01 1.360777762630396515e+00 1.225685835713204025e-01 -2.704740568144035628e-01 -1.348551417003580888e-01 -5.024293272365307761e-01 -3.549660249084480856e-01 -4.032337863819097645e-01 -8.404114855822707453e-01 -3.809087425816524153e-01 1.694344767137739571e-01 -5.484424274607575117e-02 8.183781864343925294e-02 9.812925194503614723e-02 3.501290835152345293e-01 2.443949630292666375e-01 -8.008934465486972076e-02 1.692420297955549435e-01 -3.047055560354580781e-03 2.336515560383509438e-01 -2.989118367433858947e-01 -2.193179756110951450e-01 -2.885169316921142313e-01 -1.248118724071117791e-01 2.578251733712639410e-03 -1.247406343914917670e+00 1.305030707175603433e-01 -1.331951840671689591e-01 1.902710288122964333e-01 -1.281257018257391141e-02 -1.061785899285958359e-02 1.822046787897659281e-01 6.669294304235223736e-02 -2.030763371963153485e-01 -1.326833394683666789e+00 1.462639581174177472e+00 2.543390678541176952e-01 -3.469190643228572402e-01 -6.040045986098544484e-01 1.013398457190171298e+00 -1.599646978967033784e+00 1.702320041743909940e-01 -1.223409200703353239e+00 6.890595266466180702e-01 -3.932386441890899365e-01 4.034687518430925546e-01 -1.360064776770658068e-01 -2.833178599372954132e-01 -9.028534759377784824e-02 -7.738741566994564169e-02 -7.029372841812689954e-01 5.022718930648973901e-01 -3.422845528511621604e-01 3.779124481759992271e-01 -1.267126184578473980e-01 2.135106468682939074e-01 -4.510090881751039338e-01 -7.268842224494881377e-01 1.333353785551304682e+00 -3.100920226829907422e-01 -2.620943903218737603e-01 -7.086620310359048602e-01 -8.950828704934231383e-02 -3.999559275249373047e-01 -5.065700426681482016e-01 1.050973865233673643e-01 -5.158717727690725896e-01 -2.797961075141744414e-01 2.150083626845409601e-01 -1.712591903763323320e-01 2.656327477511422064e-02 -6.596532616913021174e-01 4.056346327512214689e-01 -2.580795420859048339e-01 -4.149321546215159473e-01 -1.130288836604758512e-01 -3.286494527223238205e-01 -1.531316597245708788e+00 1.953925378996816675e-01 3.265500819290939050e-01 -2.563023607366801682e-01 -1.708537417292728677e-01 2.052024811306220331e-02 -5.060140381029976098e-01 -4.431847796163550929e-02 -2.793641443451119200e-01 4.305579809823957271e-01 -2.368995992453598043e-01 5.649631556289349543e-01 -1.723589832718617210e-01 -4.040110291304098711e-01 -2.037432266550426863e-01 -5.333207721801587198e-01 1.342649017009195145e+00 9.988420953883635212e-02 -3.274753525185386538e-01 -4.744767735696662353e-02 4.386611153137346397e-01 -3.215846879211673448e-01 -7.087328295286743352e-02 2.349236058286940376e-01 -3.024194810895306507e-01 7.659434528795827646e-02 -7.222131644126177363e-01 -1.297991861716551121e+00 1.049204650299560976e-01 -2.611115704366759882e-01 -4.499459720129468931e-01 6.881134332966675204e-01 -7.096347484938371197e-01 -2.372941776993603424e-01 3.117650178263613459e-01 -2.710349234178358047e-01 1.357769419836174052e+00 -4.968719223526101847e-01 1.685535532776221465e-04 -2.691867643112255681e-01 -4.800618054683409852e-01 -4.552957449913895838e-01 -9.274159605380539739e-01 2.257327193471920512e-01 -4.589951763496221554e-02 3.208931449945092163e-01 1.848659312908378649e-01 -7.671280237452249295e-01 2.757592481269737217e-01 1.811266877266645703e-01 1.597401986104788618e-01 -4.930375096541879665e-01 -2.593175562237688969e-01 -6.073326462051560348e-01 8.624483552906574146e-02 -1.374240694925633388e+00 -5.819705170209950040e-01 -1.455193405128239359e+00 2.889784293009604599e-01 6.313949403480435540e-01 5.359147167130926676e-02 4.431976703384961358e-02 -1.585670905961110710e+00 -6.748647540984006321e-01 7.137887815483028309e-01 2.055687795718486033e-01 -4.596893030189012630e-01 4.690280507859483361e-01 -3.022149189429024774e-01 -5.567095289841584860e-01 -4.480280669971303253e-01 2.361099785613134105e-01 -7.821469458227113813e-01 -2.567942706527667207e-01 -1.398477085834025357e-01 7.079098812463749391e-02 1.747727762705368615e-01 -1.168535799029945810e-01 -1.454892408223154750e-02 5.212532764681526709e-02 -1.476378205971948798e+00 -2.134126599797913082e-01 -2.653839860487652771e-03 -2.558324870149232821e-01 -1.417028004313755363e-01 -7.815013023410054549e-01 -8.007910587794941915e-01 -1.256482422052579428e-01 -2.778490545864991113e-01 -2.505291306233245474e-01 2.520744277160317792e-01 4.411067779439639125e-01 -2.426461335908625949e-01 -3.486364615523612209e-01 -2.555211686617041567e-01 2.766561599685089801e-02 -7.662493264395914272e-02 8.606669094242594964e-01 9.394623019537504671e-01 -4.992347276200684858e-01 -8.752877921208133960e-02 6.383736087460387676e-01 -4.750640809479411142e-01 -2.374542168469176429e-01 -5.958410960585827087e-01 -2.207542340831452898e-01 8.317996314610643926e-01 -2.739478496228469617e-01 1.184497287245864505e-01 9.508734916476978272e-02 1.153363942919021813e-02 9.484239710690120506e-02 -6.443920214807228319e-01 -3.076110171472024035e-01 -1.013438836517406988e-01 -4.019428587779543260e-01 -4.680227583959766235e-01 1.854591204174816044e+00 7.560295194401221996e-01 -9.589982657514463105e-01 4.932975061794155902e-01 4.191772315233107671e-01 -1.647541183933530218e-01 -6.329083383325687651e-01 -4.848794980183194214e-01 -5.873703466220013825e-01 1.413827796393472003e-01 -1.967260988204126537e+00 -4.238576702255035245e-01 2.208988379826725690e-01 4.025669913674367884e-01 3.783754581154810670e-02 -1.147254712267366195e+00 -3.080189395317479706e-01 2.689236968804682992e-01 -8.042719322445407437e-01 -6.707508323678125495e-02 -3.997424562696906269e-01 -2.570630570457108632e-01 -6.181461396131049391e-01 -4.053502200396065236e-01 -1.388371706592186616e-01 -2.655762107223527124e-01 -8.591788018362420676e-01 -6.131801570137006552e-01 -3.503552847481312682e-01 5.284188020312089451e-01 -2.769281615396411156e-01 -2.987960415583225116e-01 -4.173443667866312268e-01 1.495131615800115332e+00 4.599014805597175792e-01 5.968687254160779526e-02 -4.836937971470721132e-01
